{"inDim":33,"hidden":64,"out":4,"W1":[-0.29035,0.3531,-0.98684,0.33752,-1.79822,-0.67115,-0.61701,1.09611,-0.41353,0.80632,-1.57833,1.3936,-0.92837,0.56656,-0.11321,-0.27003,-3.32423,-4.91105,2.03511,-4.78472,-5.01671,1.60055,2.87201,2.71898,1.50807,-2.36162,0.71953,-1.42657,-1.58039,-2.82273,-3.34525,-0.5647,-4.70049,0.79023,-6.4964,0.56231,0.18229,0.56072,0.65808,0.3595,0.0336,-0.44095,-1.02043,0.36726,2.44689,-5.26301,-2.25499,-0.23186,0.23106,-3.17586,0.40759,-0.76291,-1.81365,-5.15699,0.26979,-6.22452,1.0354,0.70292,0.29917,-0.81417,-1.62295,-0.01026,-1.02211,0.17139,0.0842,-0.10914,1.90271,0.09942,0.24333,1.33143,-1.53396,-5.48632,-0.80878,-6.32685,-3.88947,0.52066,0.01624,1.64664,-2.71802,2.27109,-1.19806,-2.38108,-2.19773,-3.77794,-3.13163,2.45686,0.85341,-7.80828,-8.78581,-7.4511,-1.13688,-3.48836,2.62792,-3.67177,-3.36384,2.35033,-3.30067,-1.21367,-6.93842,-0.56323,-2.06707,-2.01163,-1.9284,-2.19207,-0.16227,0.02881,-2.72113,7.79723,-1.06366,-0.00142,-2.62278,-0.13207,-2.42582,-1.4175,0.18863,-1.27893,2.12385,2.54083,-1.58752,0.78943,0.4783,-2.87902,-0.67372,-3.50852,0.00939,0.83639,0.22757,0.00036,-0.92546,-3.43104,-0.04371,-3.58397,1.28247,-0.45458,-0.4503,0.65433,-0.99005,0.27899,-0.83076,-1.48564,0.33978,-1.09122,-0.59467,-3.04503,-5.80407,-5.98089,-1.75301,-4.15134,-4.0956,1.3622,3.90517,0.24039,1.57436,1.59679,6.0483,-2.57271,1.99235,-3.63876,1.62995,-2.6301,-4.33137,-1.08653,1.76899,-1.82577,-0.10453,0.12585,-2.31283,-2.04466,0.17808,-0.68212,1.95226,0.35545,-4.30206,-0.80844,-0.17337,-0.50603,0.42428,-0.23773,1.30788,-3.405,1.58738,-3.26955,-2.59846,-2.68446,2.74661,-2.57569,3.83977,-2.0586,2.61549,-2.05029,-0.13201,-0.00915,1.36854,0.04096,-0.54893,-6.11388,-5.25027,-5.77286,-0.95022,1.79194,0.14528,0.10642,-0.00689,1.52357,0.08136,-9.94278,-0.91479,0.77909,-2.39585,0.34817,-3.06742,-1.79026,0.64015,-1.71153,-1.7291,3.27237,-2.06379,-1.10094,-3.06948,3.30747,2.58962,3.05852,2.40604,-9.01906,-6.17264,-6.74218,-2.91613,-2.86116,3.75395,-2.10856,-1.81125,2.92153,-4.75596,-0.03268,-1.64674,0.23043,0.67149,0.09509,-0.94426,-2.77967,-0.47913,-0.30293,-0.39734,-2.39244,0.11087,-0.02415,-1.54715,-1.67464,0.43369,-3.86761,3.14982,1.48484,-0.08749,0.32252,-0.41913,-1.56024,1.35784,1.93685,0.37561,-0.6647,-3.47255,-2.53584,-0.47073,0.16608,-0.71767,-0.04484,0.78758,0.96335,-0.96838,-4.06911,0.3414,-2.1475,-0.71643,-0.12311,-4.99478,-4.95511,-1.95371,-3.76626,-2.90882,-4.63682,-0.11969,-0.92735,3.35789,-3.21327,-2.3976,1.98065,-3.69895,-5.12477,-4.90642,3.51457,6.09625,4.72768,3.81385,-5.5044,-6.10905,-3.04704,-0.78324,5.57087,-4.74998,-6.38857,-6.42119,-1.00469,1.03684,-0.29215,-2.03529,-0.88056,-2.94227,-0.38943,-3.65036,1.0304,-1.8611,-1.35876,-0.23148,-0.85763,4.07913,2.09129,1.75704,1.81445,2.25706,0.8255,0.88171,0.70649,-8.26379,-0.28366,-0.01473,-0.61679,0.31518,0.4728,0.50171,0.66772,0.61045,0.26105,-0.19746,0.50789,-0.26149,5.28851,0.22951,-13.00723,0.52599,-0.13439,-0.0583,1.31198,-0.30256,1.42841,-4.76002,-2.04143,1.10666,-4.22163,2.05188,-1.73006,-3.14772,-0.25026,-4.35871,-1.56132,1.70333,-1.86612,2.29242,-2.81101,-3.50524,1.76355,-1.3221,-4.26832,0.94141,0.30963,-2.72813,-2.66163,-2.58213,-2.99024,0.0853,-0.10844,-0.69339,8.36031,0.07455,-0.1874,-1.57314,-0.5344,-1.97316,1.38294,-0.92649,-0.2781,1.63133,-1.88886,1.42663,-2.21291,-1.84363,0.7584,1.21911,0.9867,0.35904,-0.13134,0.46703,0.35953,-0.67557,0.05079,-0.25618,0.14409,2.29247,-1.17582,-3.01408,-2.90414,-1.49754,-5.93156,-0.04794,9.8902,-0.28962,-0.18204,-0.04401,-0.67248,-1.00577,-0.22355,-4.18706,-2.92195,-0.06836,0.24233,0.40788,0.18304,0.27344,0.22323,-1.53516,-1.37239,0.07775,-0.17923,-0.00693,-0.00008,-0.29652,-0.03727,-1.02154,-3.31956,0.09104,-0.21384,-0.06066,0.16303,-0.02057,-0.19665,0.05339,-0.09333,-0.32177,-0.13775,0.00375,0.13745,-0.2391,-0.24297,-0.12159,0.04965,-0.09008,-0.20982,-0.01716,-0.05352,-0.16414,0.03319,-0.17495,-0.07764,-0.04592,0.0917,0.03948,-0.11196,0.16194,-0.00085,-0.03212,-0.14615,-0.20974,-0.18538,-11.52392,-2.69037,-3.47634,-1.73683,2.60866,0.53169,0.19738,-0.76158,-0.21525,-1.23546,0.28614,0.02327,0.35141,1.56497,-6.6889,0.06514,0.64177,2.5852,-5.94451,-6.74252,1.27566,0.28626,0.3082,0.79137,1.62683,0.86467,0.15126,0.74344,1.09258,-0.04182,-1.46959,-0.65628,-0.17111,-2.39692,-5.53008,0.51416,-0.65,0.81525,0.75589,-0.92961,-1.76087,-2.39444,0.81182,-1.10034,-2.52482,-1.19793,-1.02534,-3.173,2.60411,0.5165,0.75649,3.49174,0.45948,3.03645,-0.06438,-0.3058,-1.47839,-1.2645,-0.88693,0.94411,0.20483,0.3264,-0.34993,-0.02164,-0.53147,-0.54851,0.01434,1.6875,2.14398,2.09835,-4.79368,0.22888,0.06035,-8.68384,-7.3644,0.06407,0.66729,0.14783,-3.37837,0.7408,0.8967,-1.99451,-1.75682,-1.5072,-0.99767,2.14711,2.16747,2.64266,2.8471,2.88674,3.27599,-0.74357,-0.42527,-0.8619,-0.75669,-0.8494,-0.0165,2.00169,2.37427,-0.25433,-2.22516,-2.22432,-1.92047,-2.81917,0.36747,-0.19907,-1.17248,7.93597,0.44443,0.32613,-1.17195,0.29247,1.87672,-1.7265,0.51757,-0.97061,-2.49869,0.77314,-2.14411,1.08311,1.30508,-0.15303,1.15766,-1.30863,-0.24813,0.0877,-0.25842,-0.13921,0.05714,-0.48339,0.22662,-0.104,0.09026,-5.10132,-1.68836,0.87218,0.8225,0.59383,0.74963,-2.35997,-0.26426,-1.02565,-5.5395,2.01266,-3.30173,0.98086,0.27317,0.70836,-1.48226,-5.63342,-1.59541,0.26626,-5.66589,-1.95136,-2.37711,-0.26247,-0.07965,2.15432,0.25842,-0.36688,1.9077,0.11896,0.15026,-0.49436,0.11636,1.45193,-0.96741,-0.57083,-2.25885,0.22815,1.77106,0.57728,-6.01145,0.59725,-1.30842,0.95642,-0.40916,-1.91865,-0.56035,0.15414,-1.03695,0.57171,-0.46136,-2.31345,2.01374,0.94679,0.1747,-2.17457,0.42312,0.77445,0.70811,-2.62179,2.33572,1.97225,-0.45991,0.75857,-0.97343,-1.02257,0.31446,-0.72505,0.2344,0.01061,0.3136,2.57036,-0.10009,-7.85779,1.16071,-1.08856,-0.37138,2.38773,-0.88552,0.86471,1.24688,0.71238,-0.33748,-1.3701,-3.80325,0.23237,0.48205,1.15425,1.34781,0.08701,-2.9345,-4.75278,-2.57326,0.00193,0.0249,1.09801,1.11472,0.48573,0.51052,3.82505,0.0657,-2.22353,-3.84343,-0.39319,0.78319,-0.12525,0.06316,-3.53243,-0.09907,-4.08037,-3.5814,-1.78786,-0.3915,-3.0847,0.07991,0.44014,1.7864,-3.03567,-5.76226,-5.30736,5.80684,4.72636,2.55759,3.11297,-2.3812,-6.40583,-4.04419,-6.8048,-0.3861,1.21524,-1.64178,-2.93176,-9.76248,-7.45927,-6.6032,-6.56378,1.96834,1.44365,0.0661,-2.75375,-1.51022,-0.7371,0.19731,1.31475,-6.87889,2.60499,0.50491,0.30791,2.23378,-0.27018,-1.64399,0.14245,-0.839,1.74148,1.03795,1.08365,0.37489,0.33303,-0.1872,0.38783,-0.0918,-0.36137,-0.13698,0.41035,0.51808,-6.74437,-0.98124,-1.7931,-1.9639,-1.22747,-10.18182,-0.07591,15.1649,0.00367,-0.10278,-0.19591,-1.02263,-1.0645,-0.21139,-0.80739,-0.61893,-0.42965,-1.09071,-0.94575,-0.8871,-0.97429,-0.23171,-0.63569,-0.2813,-0.2398,0.14606,0.20653,0.17633,0.21557,0.02977,-0.45451,-1.23059,0.09556,-1.02185,-0.60654,-1.86491,-1.75597,1.51814,0.58712,0.4375,-0.50687,-0.05034,-2.26081,-1.22576,-4.13616,0.04878,-1.56327,1.31206,-4.61903,-1.33346,-3.70999,1.615,-2.594,1.70188,-0.91507,-2.75208,2.54708,-2.39976,-0.58225,-1.14734,-0.38753,-0.42756,0.11336,-0.06882,0.01509,0.59529,0.94951,-0.40661,-0.1195,0.08044,-1.11798,2.39155,-0.12901,-6.53261,0.51323,0.31257,0.11037,1.84836,-2.00549,1.71154,-4.46063,-1.25771,-1.79857,4.1011,2.7479,1.80883,2.00009,-3.51953,-7.10813,-2.08045,-6.72834,-3.99983,-2.61558,-1.52979,0.29037,-4.78779,-0.77068,0.98321,-3.03712,-12.06706,-6.35509,-6.51076,-0.68659,1.49544,0.53829,-0.0835,-1.48132,-1.78439,-0.57962,-0.49961,-1.06591,1.97488,-0.76291,0.48646,1.20743,-0.40549,3.40384,-1.03049,2.96339,1.07722,2.22172,0.9042,-0.33193,0.07225,0.09025,-0.12051,0.75375,-0.43517,1.29041,0.08438,-0.65066,-0.02225,1.17812,-0.38207,-0.49192,-0.53404,-0.28244,1.54061,0.32318,-6.66525,6.34583,-1.06923,-4.52286,0.14215,-0.04574,0.87625,-1.75455,-0.58015,0.3265,-1.68112,-1.36306,-8.33294,-8.39648,2.3874,1.23451,-0.20044,3.87043,-0.14971,-0.90157,-2.10142,1.31109,-1.54775,-1.21372,-0.90869,-0.00714,-0.24961,-4.80775,-3.29252,-3.35897,-0.63958,-0.40663,0.39052,-2.22502,-4.74795,-2.64118,-1.30864,-3.11111,-1.48715,-3.9889,-2.13834,-0.53189,-2.48058,-0.05773,2.29195,-1.95764,-2.97652,4.53,-4.03616,-2.84335,0.02992,4.77289,2.30767,-3.20461,-0.13061,-4.63768,1.56467,0.99147,-3.19753,-0.28772,-1.44395,-1.66542,-1.45144,-1.91261,0.35494,-0.21285,-1.13465,8.48009,0.03194,-4.48325,-3.13873,-1.51499,-0.57774,-1.75725,-2.37706,-0.62684,-2.4635,-1.6071,1.08561,-3.15449,2.79279,1.49423,0.43199,1.53425,-0.16658,-1.7018,-0.67373,-3.78567,0.23283,0.07985,0.12401,0.0793,-1.90807,-2.97008,-3.0726,1.24913,0.52668,2.11572,-0.29235,-2.72948,-2.12751,-1.16468,-0.19763,-2.04497,1.11402,-0.93402,-2.20569,2.02335,-3.46239,-2.84197,-2.42077,-1.38261,-2.40799,1.43917,-1.57124,-0.15429,-1.45362,-0.55986,1.0838,-1.37074,-1.00242,1.74587,-4.16632,0.24394,-0.33096,-0.44611,-1.4307,-1.88514,-1.83009,-1.94299,-4.42383,-0.28624,9.3961,0.4445,-0.15291,-0.19222,-0.04287,-0.44677,-0.90769,-0.4514,-0.09591,0.42051,-1.19448,-2.18867,-1.27112,1.40667,0.53105,1.64417,1.25135,1.36049,-2.06416,-3.78863,-4.93096,0.46538,-0.8548,-0.03271,0.14875,0.01376,-1.12195,-0.73074,-1.04821,-1.68451,-0.01554,-0.36488,-0.22255,0.2226,2.47115,-0.23389,-1.02743,-1.86297,-0.14042,2.43636,-3.18061,1.86651,-2.94305,-0.38224,-0.21636,0.0738,1.2967,1.77965,-3.55535,-4.48066,-3.5462,-3.27476,-5.0279,-2.90973,-1.35264,1.38012,0.89627,-0.58698,0.05866,0.1007,-4.88076,0.59177,0.76868,-2.99937,-3.9232,0.01927,10.94911,-1.96645,0.12005,0.24696,-1.5855,-0.71242,-0.00474,-0.66797,-0.95088,-0.31535,-0.25149,-0.53986,-0.05875,0.35809,1.75104,1.11243,1.04112,1.28972,-0.57236,-5.68873,-0.07045,-0.33757,0.18335,0.00883,0.24914,0.65959,6.07586,-0.14569,-3.01677,-1.95573,0.01054,-0.32148,-0.07831,0.63273,-1.61618,-0.11932,-0.16983,-3.00846,1.2004,-3.21042,-3.87806,-5.40867,-0.63475,-2.11997,-1.77013,-0.78927,-1.35996,0.0549,0.66657,-0.22225,0.49262,-0.59664,-0.57937,-0.44373,0.26109,0.57893,0.36371,-0.05509,0.16051,0.59873,-1.03766,-0.51589,-1.15677,-0.36127,0.10887,0.41821,-0.08587,1.83162,-2.09067,0.93543,-2.00998,-1.67508,-0.39603,-1.05408,-0.16341,-2.92099,-3.56092,-3.92168,2.90238,3.32772,-2.59864,-1.62856,2.46895,-4.61927,1.3494,1.06412,1.908,-0.73611,-2.10792,-0.2562,-0.03798,-3.07916,-1.60134,-5.9509,1.28097,1.68686,-0.89002,0.82189,0.05355,-4.07095,2.47479,-2.96629,-0.51005,-5.18371,1.03096,-3.47739,-3.23195,-0.15386,-0.49339,-4.58182,-2.01628,-0.24188,-0.08095,0.78251,-0.05787,-7.003,-6.73075,-3.06516,-0.9254,3.9647,3.98634,0.97928,-0.09577,-0.76968,0.74188,0.66746,-0.82649,-1.98729,-1.44279,-2.10382,-1.28006,0.14182,4.52436,-0.64817,-0.38463,-0.72253,0.81111,-0.10926,-2.11929,1.14626,-1.63083,1.19421,1.10232,-4.46133,-0.71442,-2.69052,1.03102,2.62068,0.02681,2.97755,0.31771,-5.67407,-4.89943,-0.56705,0.43387,1.61182,-1.70135,0.60094,1.37036,-1.11149,-5.15738,-3.69594,1.13975,3.36985,0.20687,-8.98854,0.77608,-2.25044,-2.52683,2.81749,1.55067,-4.81754,2.08155,-1.17969,0.70453,-0.40929,-0.41102,-6.05789,0.54254,-0.4708,-6.57371,-1.35112,-1.48092,0.6946,0.99873,-0.12875,0.32815,0.07863,1.00949,1.30594,0.08416,-1.81073,-2.29932,-4.85646,-3.74263,-0.00747,1.71128,0.89845,-4.31917,2.22926,-1.3942,-0.46339,-3.34584,-0.31846,-1.94413,-2.05419,-4.89765,0.38024,2.43924,-1.41471,0.92842,-0.49507,1.80086,-0.8474,4.09603,-1.81995,-1.47612,-1.2664,-0.74873,-0.15346,-1.94212,-0.05722,0.11869,-0.18831,2.09853,-0.67477,0.03367,1.29668,-1.89879,1.72021,-1.20931,0.54769,-0.90532,1.54139,-4.66996,-6.76782,-1.1279,-3.94509,-4.23791,-1.67764,-7.32406,-1.64505,-2.28374,-1.40429,2.54936,-3.84868,1.63717,-2.556,-5.05495,3.41844,-3.52521,-2.61224,-2.42243,2.40845,0.61262,2.51693,0.56642,-2.53476,-2.00372,-5.4209,-2.39063,-0.09948,1.69983,0.37728,-5.47655,1.48094,-4.75837,-0.03884,0.29645,-0.75694,1.81501,-0.75298,0.85119,-0.34583,5.16653,-1.20002,-0.27659,1.18498,-0.19794,0.88628,0.37797,-0.12729,2.32462,0.88968,2.25582,0.57686,1.39511,-1.48181,1.3545,-1.24285,-2.17264,-4.13304,-3.50501,-2.17997,1.69698,1.118,-0.05708,-5.63627,1.5546,-2.64523,0.32652,2.17374,0.9281,1.25464,-5.36965,0.60113,-4.28702,0.54783,-3.40597,-0.13085,-4.09603,-4.34043,2.29355,-0.10631,2.06974,-0.94362,-0.02128,0.88387,-0.24226,0.01366,-0.48475,0.63405,-0.32715,-1.65323,0.76269,1.12755,0.71124,-0.80375,1.02339,-0.99482,-1.93519,-0.02972,-0.18786,0.61099,-5.95056,-1.91723,-3.75617,-2.50288,-0.18791,-6.48993,-0.66785,-2.7092,3.65549,-4.06309,-3.73437,-4.57549,2.62351,-1.95107,-3.35576,-5.31039,1.59928,-4.69936,0.34926,0.60306,3.41541,-2.62813,-5.35312,-4.88658,-4.54259,-2.50036,0.92214,0.87896,-0.16751,-1.82475,-0.95127,-1.30536,-0.49563,-0.26783,1.21853,-3.425,0.76228,0.73737,-5.25399,-3.31531,1.90647,-0.88771,-1.8383,1.66109,0.4854,-1.58038,1.84674,0.16678,-2.35219,-0.71714,0.00705,0.75666,0.5557,0.96132,1.13055,-1.58476,-1.87696,1.40228,3.47886,-0.60385,-2.26091,-1.97398,-1.72978,-6.25216,-2.87955,2.84112,-2.28455,-2.68653,-5.27215,-1.1848,-2.20855,-5.04456,-3.5914,-2.29746,-2.14388,2.98314,1.62616,-1.59872,0.99912,3.5711,-3.83491,-4.30982,-2.26592,1.96986,-7.67223,-2.79786,-0.04565,-5.77376,-2.04528,0.1091,-3.23144,-4.98786,1.02649,1.25343,0.17637,-4.31867,0.19528,-4.66569,-0.48284,2.60427,-1.96125,2.43239,-0.56315,-2.83114,-1.244,-6.81949,-3.8306,-1.3675,1.40069,-2.24556,0.33658,0.61486,1.19358,1.43275,0.09449,-0.34028,0.52516,-1.01031,-0.26584,-0.80108,-0.52002,-0.26832,1.47379,-1.0819,1.71398,1.00503,5.40773,-0.09799,-12.98435,0.01077,-0.13037,0.88782,-2.42489,-2.64331,2.08297,2.10353,2.1889,1.98034,-0.00101,-0.98201,-2.36074,0.31994,1.29955,1.61444,1.52126,1.90033,0.50607,-0.70755,-1.15338,0.81503,1.0167,0.69995,1.12235,0.68136,-3.79268,2.0828,-9.15641,-4.94634,0.53977,0.88156,-0.32051,-4.53224,-2.43468,2.60565,1.47072,0.87589,-0.11738,1.18443,1.83487,-1.89507,0.58755,1.08788,-0.50134,0.49536,-5.48679,-0.39636,0.31077,0.74392,0.33873,2.15157,0.83889,0.43136,0.64664,-0.67294,0.17875,0.09828,0.44011,6.17786,-1.90896,-7.82397,-7.79702,-0.84507,-0.1606,0.08014,1.1242,-2.17958,2.56419,0.92226,1.84811,2.26627,-4.75732,-4.55728,-2.21518,-2.47856,-5.86045,-0.11935,0.48205,-0.04808,-0.05923,-0.23979,0.02419,0.18721,-0.07593,0.66725,-0.13776,-0.48086,0.21011,0.39064,-0.04942,0.18569,-1.74738,-0.95284,-1.58336,-1.60813,-1.15856,-7.5568,-0.01191,11.89229,-0.18928,-0.17127,0.06424,-0.07774,-0.28855,0.18944,-2.83818,-4.18336,0.24269,-0.16049,-0.02901,0.0734,-0.13795,-0.21569,-2.56666,-3.20551,-0.23233,0.62058,0.62463,0.60919,0.35696,-0.00706,-2.22105,-2.34893,-0.1234,-1.51878,-5.543,-1.56694,-0.67849,0.3223,0.72327,0.04334,-0.69201,-0.78382,0.17028,0.38395,0.42198,1.01376,-0.92147,1.34021,0.66385,2.26843,-4.66658,1.18174,1.25666,-4.88383,0.78911,3.22553,1.77545,1.23157,-4.76734,0.2955,-0.82429,-1.52731,-0.67821,0.56191,-0.26181,-0.59358,-0.66823,-0.23663,0.10378,0.04379,0.36934,1.74796,0.25297,-5.45175,3.35034,-2.86528,0.80071,-0.86538,2.27424,-2.82629,-0.07136,-0.13062,-1.2979,0.7489,1.28668,-4.85514,1.32402,-1.43319,-0.59519,0.55692,-0.25873,-0.26384,0.38843,0.30803,-0.98179,-1.0987,-0.11627,-0.06457,-0.6081,-1.78486,0.18324,-3.42259,-4.71002,1.53255,1.1022,0.51511,-3.28573,0.03882,-0.15233,-5.05323,-1.54907,-3.36247,0.82295,0.99262,-1.01721,1.27807,-2.38162,2.33478,-1.7827,1.67838,0.39722,0.27644,-0.17112,1.58853,-3.62908,-3.40029,0.16315,-5.69929,-0.28078,-0.14111,0.12527,1.08073,0.45824,-0.27195,-0.09875,0.12934,0.35503,0.93907,-0.26587,-2.56209,3.68053,-2.18303,-6.47042,-0.39567,-1.82594,0.68743,0.49689,-4.78608,0.39402,-2.42688,-6.34072,-1.86179,0.48425,2.65588,-0.10218,0.73078,3.29513,-0.39094,-1.58873,-1.2002,-0.83092,-1.1236,-1.48907,0.71934,0.80487,0.17895,0.56336,3.17796,3.12898,-0.45969,4.92372,-0.12118,-12.6849,-1.52854,-0.86566,0.0252,-2.33433,1.1264,-0.79686,-1.73952,0.51632,0.7711,1.84026,1.3284,1.22063,-2.94184,-0.70569,-0.2469,0.10158,0.24261,0.6674,0.48611,0.27929,0.11371,0.12692,0.02663,-0.04391,0.1585,-3.59507,1.05366,1.18556,0.21743,-0.96842,2.4882,-0.55439,-3.11992,-6.34132,0.137,-0.96134,0.71996,1.01503,1.42262,0.65057,0.66755,1.51726,-2.57789,-2.18368,-1.99652,1.27666,-0.21684,-5.31798,2.21363,2.67232,-6.7542,-5.98446,-3.81169,0.19957,4.38858,1.04986,3.01227,0.58361,-2.50651,-1.50049,2.33282,2.39247,-1.54732,3.70964,-0.02155,-8.72689,0.42017,-0.67313,0.16923,-4.52118,-0.02956,-2.18068,-3.35223,-7.00573,0.35597,-3.75054,-4.38477,2.93733,-3.52355,-4.17202,0.6598,-4.04505,2.69221,-7.66228,-6.90326,-0.02169,-6.74176,0.34875,3.05936,1.33633,3.93376,-3.60952,-5.27619,-5.88823,-2.77863,2.52469,1.03711,0.05049,-3.06742,0.28387,-1.59257,-0.2064,-3.68233,1.85386,-3.76905,0.21494,0.86173,-2.066,1.71777,-3.53064,0.4443,-0.7358,0.61997,-1.96795,-1.42647,0.16359,0.25389,-0.01217,0.08038,-0.68065,1.06289,0.59975,-0.09306,0.757,0.255,-0.4614,-6.82553,-6.7018,-6.47472,-0.55777,-0.32293,8.19625,-1.23293,-0.52943,-0.64271,-0.54082,0.70607,-0.8692,-0.72493,-0.97722,-1.19601,1.45938,0.64312,0.20303,0.65469,-0.88087,-1.20778,-0.77455,-2.04833,-1.31642,0.27002,1.66623,2.01755,1.37136,1.16627,0.80781,0.61963,-4.8458,-5.27132,-4.89684,-4.48349,0.12371,-0.33491,1.57969,-3.21841,-6.16257,-0.85761,0.55729,-0.6698,0.04327,1.74428,-0.09353,1.42164,-4.23788,-0.58803,-1.36393,-4.94312,-2.14877,-3.13294,-0.08488,2.96732,1.35169,-0.2281,-2.67099,0.59354,0.98613,-2.14382,1.86455,2.43273,3.69597,5.58229,-4.46196,-3.6168,-5.43749,-0.97903,-2.91613,0.14101,7.00022,-2.35949,-0.09039,-0.07263,-0.17948,-0.15056,-1.53506,0.19271,-0.21406,-1.91216,-0.39283,-2.4793,-0.289,-0.51147,-0.09012,-0.66688,-1.03272,0.25106,0.15615,0.13456,-0.2706,-0.20186,0.5595,0.88865,0.19496,0.4457,-0.03662,-3.99431,-2.65994,5.03655,-2.97975,2.23892,-0.34805,-5.46909,-12.51601,0.10929,0.48588,-2.73306,-1.42239,1.27654,0.41638,-0.17132,0.74838,2.61094,-1.17244,-0.92955,2.93932,2.14185,3.25087,2.3374,2.30851,1.88929,0.32401,-1.13331,1.71566,2.74765,1.79423,2.36497,1.78718,0.19786,-1.99847,-1.73609,-2.04873,-1.9763,-4.63721,-0.16212,11.48285,0.05196,0.17448,-0.15911,0.37238,0.10572,0.05233,-0.7796,0.05886,-0.4548,0.07455,-3.67026,-3.17482,-3.56797,2.35426,1.98232,2.33678,1.54604,-0.27852,-3.45773,-3.11298,-3.39637,0.35861,-0.29619,0.3592,-0.19987],"b1":[-1.87808,-0.00402,-2.15357,-4.10667,-3.92348,-2.98165,-0.86774,-1.23993,-2.84358,-3.13825,-1.06524,-6.01919,-4.0991,-0.1007,-0.33825,-0.19337,-0.57628,-6.52585,-0.48206,-2.14383,-0.63956,-3.07864,0.79117,-2.36063,-0.78467,-1.63776,-1.15479,-1.80682,-2.40137,-4.59824,-1.09668,-3.57019,-2.02524,-2.9594,-1.71843,-2.28792,-0.82808,-3.84991,-0.56575,-2.19672,-4.67246,-2.83955,-0.6579,-2.71353,-0.76929,-1.71609,-0.77351,-0.86707,-0.40131,-2.22905,-3.13737,-1.68788,-0.05689,-0.08294,-0.84813,-0.14066,-1.57076,-1.85901,0.72958,-3.5486,-1.60966,-3.00558,-4.20132,-4.06824],"W2":[-0.26425,-0.17713,-0.65581,-0.48043,-2.10825,-0.38032,-0.9128,-0.43952,-1.25243,-0.643,-0.3414,0.65326,-2.87999,-0.14152,0.23453,0.31057,-3.75958,-3.85483,-0.09929,0.25983,-0.79746,0.40383,-0.08208,4.64481,0.28837,-0.50029,0.00374,0.2199,-0.39885,-1.5123,0.22764,-1.00317,-0.48696,0.3739,-0.10466,-0.52289,0.46801,0.24472,0.11599,-0.57005,0.26376,0.27812,-0.33032,-1.11738,0.36818,0.53242,-0.79927,1.5344,0.27413,-0.503,-1.32243,0.19394,0.29915,-0.11314,-0.28292,0.46552,-0.31234,-1.4018,-0.11517,-1.1746,-0.01047,0.32979,0.657,1.43206,0.34996,-0.27288,0.47808,-0.22646,0.37448,-0.32085,-1.30351,-0.27684,-2.0509,-0.05783,0.79328,-1.51582,-4.55163,0.00587,-0.10275,0.17591,-1.20397,0.90643,-0.18146,-0.87257,-0.78268,-0.09512,0.4393,-6.30279,-0.88623,0.2852,-0.54917,0.41676,-0.83773,0.05351,0.07578,-0.00651,-0.04191,-0.51454,-0.50799,-0.22212,0.2805,-0.44883,-0.18398,0.44746,-0.94389,0.16894,0.25239,-1.01327,-0.3703,-15.23429,-0.05297,-12.81883,0.1008,0.26042,2.57391,0.13121,0.21791,0.03571,-0.38598,0.572,-0.52888,-0.80609,0.38057,0.12746,-0.06222,-0.33361,-1.68425,-0.86802,-0.1288,-0.09668,-0.8458,-0.6646,-1.80268,0.38382,-0.77123,0.10417,0.43966,0.16295,-0.67625,0.72062,0.76199,0.07055,-0.51002,-0.43578,0.40278,-1.77537,-0.22814,0.19514,0.24375,-0.45199,-0.44125,-6.81545,0.0036,-0.28774,0.24982,-0.29445,-0.68955,1.23662,-1.37595,-0.53073,-0.18064,-0.40346,0.17456,0.06308,0.00557,-0.19645,0.34926,-0.10434,-1.30101,0.07724,-0.32868,0.11363,-0.02144,-0.30096,0.40026,-18.53928,0.36435,0.18212,0.33227,0.05759,-0.49022,0.1514,0.04454,-1.98485,-0.12026,0.15336,-0.17451,0.58078,-1.46584,-0.17221,-3.6031,-1.20247,-0.08944,0.30071,-0.63007,0.87105,-0.95209,-0.26544,1.04987,0.18056,-1.17762,0.20077,-1.48309,-1.3817,2.77634,-0.0044,0.25152,-0.08777,0.41845,0.71616,0.2584,0.3035,0.41951,-0.81292,-0.42961,4.04749,-0.00907,-0.69657,0.13625,-0.46375,0.4579,-2.07436,0.06775,1.12167,0.11442,0.26985,0.05609,0.21839,-0.5194,-0.37412,-0.46645,-0.43802,-1.53446,-0.79759,0.25739,-1.28489,0.08027,-0.60666,-0.15537,2.30955,-0.44077,0.25477,-3.7412,-0.42452,-0.28788,-0.44666,0.25997,-2.53006,0.3137,-1.31005,-0.22349,-0.00554,0.01951,0.22132,0.67462,-1.05032],"b2":[-0.01624,-0.20621,0.37055,-0.17288],"trainedAt":"2026-06-30T23:57:12.215Z","note":"step-selection MLP (Adam, gramatica de patrones, JS puro)"}