{"inDim":19,"hidden":28,"out":4,"W1":[1.8797,-1.27852,-1.42144,-1.16031,1.94625,0.67294,-1.85717,-1.6339,-0.09761,-0.13371,-0.68856,-0.4306,-0.53101,1.73042,-1.81763,-0.25827,-0.25141,-0.2529,-0.03937,-0.08208,-0.52041,-0.22491,-0.21164,-0.04548,-1.06628,-1.57664,2.30123,-2.22308,-1.19494,0.08676,0.52523,-1.17336,0.08966,0.14943,1.66341,-1.13493,-0.90894,-0.95085,-0.21424,2.00404,-0.57044,-0.36258,-0.51662,-1.64102,-1.32605,-3.82394,-0.10106,0.23239,-0.2627,0.40184,0.25567,-1.42318,0.92495,-0.11044,-0.09012,-0.01087,-0.22289,2.71249,-0.44381,-1.73639,-0.49478,0.53281,0.83252,-1.05512,-1.43415,-0.52287,-0.92889,0.14193,-0.85627,-0.91158,-1.78297,1.69531,-0.48332,-0.31969,-0.08428,-0.3974,0.21638,-0.92569,-0.67221,-1.25568,-0.88868,0.1727,-2.43141,6.3488,0.06089,-0.88802,-1.06128,-0.87167,-0.32153,-1.32728,-0.53796,0.79706,-0.53476,-1.8122,-0.44317,-0.3185,-0.86698,-0.47816,-1.35301,-0.56989,0.10937,-2.5013,6.47501,-0.11155,-1.43743,-0.85404,-0.61961,-2.07052,-1.19084,0.73487,-1.53756,-0.98959,0.32471,-0.39446,-6.25798,-0.97321,-0.81635,-0.55178,1.99264,0.31494,-1.67323,0.11271,-0.33768,0.06072,-2.88849,1.43128,-2.20461,0.09608,1.27874,-2.61491,0.06815,0.08518,-0.49009,0.01899,-2.87004,0.71725,1.06763,-2.16395,-3.29405,10.78327,-6.58614,-0.00295,-0.32022,1.42013,0.21191,0.08179,-1.74335,-1.80648,0.31092,0.13809,0.14567,0.19457,-0.412,-1.098,-0.50174,-1.15432,-0.36006,0.88649,-3.40412,6.18133,-0.87576,-0.36547,-1.70358,0.8779,-1.1752,-2.37623,-0.35818,-0.69531,0.75928,-1.29525,-1.34076,0.24788,-1.35304,-1.32674,-1.46861,-1.27502,0.20165,-1.92943,10.52774,-1.42986,-0.54197,-1.6703,-2.0171,-1.08517,-2.19131,-0.81389,-1.6946,-0.70679,1.69821,-0.53026,0.07276,-1.0587,0.73827,0.68799,-1.5997,0.21853,0.39649,0.55581,0.12937,-0.97293,0.97451,-0.55498,-0.96404,-0.05123,-0.14123,0.1607,-0.10967,-0.10959,0.30535,-2.39119,-0.26816,-1.84865,-0.48596,1.52507,0.25572,-0.89309,1.26522,-1.29496,-0.6416,1.14312,-0.18005,-1.59386,0.65758,0.09228,0.14657,0.6742,-0.12755,-0.43509,-0.03562,1.80446,-0.90408,-0.21258,-1.15644,-0.27827,2.94917,-2.33005,-0.68267,-0.32193,-0.52071,-0.04765,-0.05934,-0.09182,0.01044,0.0773,-0.16638,-0.02275,0.1084,0.02882,-1.83983,2.46352,1.10744,-1.48029,-0.72965,-8.97856,-0.57388,-0.07451,-0.9068,1.40348,-0.30474,-0.65323,0.10059,0.14937,0.20443,0.18776,0.10117,-0.01359,-0.03149,-2.0973,2.93605,2.99228,-2.13287,-0.03391,0.78804,-4.44391,-2.88955,0.7197,-2.96528,0.02892,0.27092,0.00945,0.54386,-0.94405,-0.95865,-0.73478,-0.48668,0.43862,-0.00749,-1.58066,-0.46581,0.71271,0.17611,0.69296,1.48342,-2.19121,0.03449,-1.66316,0.02348,-0.19991,-0.00889,-0.55769,-1.8127,-1.25537,0.54366,0.60012,-0.19624,-0.55441,-0.64779,-0.48597,-0.55755,0.04183,-1.74428,3.1775,-0.60007,-0.63043,-1.06929,-0.75817,-0.07873,-0.67309,-0.82743,-0.9309,-0.49587,0.81013,-0.35554,6.39538,-2.2398,-2.59163,-1.34735,3.24589,0.41339,-1.86933,-4.59302,-0.16356,-0.4448,-2.17556,-0.21942,0.11472,-2.88876,0.15736,-1.4207,-1.28192,0.53263,0.1716,0.0662,0.86248,0.98855,0.23986,-2.05149,0.14376,-3.68318,1.13482,-1.44815,0.58359,-1.14097,0.3637,0.19273,-1.27709,0.74612,-1.20663,-0.48897,0.48946,0.21205,-1.39761,0.58248,-1.46399,-1.26593,0.88766,-0.01377,-0.82788,1.40408,-2.58641,0.31154,-0.36318,-0.19562,0.67189,-2.11963,0.79643,1.17493,1.34413,-1.05529,-1.05857,5.11888,-1.70153,-2.20391,-1.59869,3.68154,0.16223,-0.47191,-11.13178,0.02373,0.13724,-1.46766,0.72157,-2.05767,0.01574,0.27721,-0.50096,-0.28392,-0.35079,-0.52595,-0.86189,-1.49006,-1.44792,-1.36595,-1.04395,-0.21462,-1.6709,10.76497,-0.35761,-1.63425,-0.27281,-0.21218,-2.42193,-0.63701,-2.35291,-0.83109,0.45163,-0.85292,-0.5579,-7.01237,-1.65367,-1.12768,-0.70569,4.62125,0.03518,-0.27471,-11.68888,-0.10129,-0.52054,1.34307,0.87851,1.03981,-1.64568,0.84558,-0.45578,0.116,0.64233,0.53267,0.05289,-1.78965,1.8136,1.90219,-1.91741,-0.61846,1.39625,-3.28508,-2.78773,-0.93634,1.54849,-0.37184,-0.27489,-0.01758,0.07312,0.22958,0.23237,0.11007,0.04973,-0.09893,-1.73138,0.84753,0.7829,-1.45607,-1.50829,3.69219,0.58686,0.36735,0.22074,-1.87264,0.03717,-0.10532,0.10449,-0.85159,-0.3509,-0.72272,-0.46123,-0.50016,-0.42053,-0.26317,-0.0915,-0.4774,-0.27278,0.06775,-0.84997,1.50029,-0.0034,-0.19615,-0.69169,-0.49505,-0.09869,-0.29858,-0.43935,-0.72355,-0.15489,0.52191,-0.48,0.00978,-1.06865,-0.30208,-0.97889,-0.13694,0.00695,-3.64673,5.65339,-0.42179,-1.03027,-0.4454,-0.28955,-1.66236,0.14397,-0.71356,0.43921,-2.06584,-0.62754,0.57723,-9.43876,-2.8157,-2.43386,0.80996,4.09804,-0.08734,0.06041,-11.6082,0.0295,-0.60645,2.5889,0.76073,-2.9638,0.68784,1.05667,0.55474,0.47371,0.73843,0.71551],"b1":[-1.14474,-1.06309,0.25079,-1.83632,-2.85235,-3.3387,0.11444,-3.47808,-3.14385,-5.77916,-1.38828,-0.8931,-0.62335,-0.16681,1.40585,-0.8403,-2.21605,-2.73693,0.25082,-0.92556,-1.511,-5.45085,0.82176,-0.52921,-1.03826,-1.36599,-2.2862,-0.25217],"W2":[-1.15721,0.68427,-0.60952,-0.79571,1.8008,-3.52962,-0.48729,3.45635,0.36401,3.29664,0.38898,0.76166,-2.42528,2.22381,-2.61498,-0.70446,1.49593,0.17946,-0.71652,0.73473,-5.01902,-3.64575,1.41991,2.06546,-0.23633,0.86364,0.22205,4.1798,0.35873,0.6566,-1.32999,-0.49583,-1.91758,-0.27397,0.93598,-2.4293,2.67543,-2.17293,-0.31959,0.33384,0.74329,2.87492,-2.40854,-0.23832,-1.05766,-0.99203,-1.13342,0.6853,1.55004,2.84382,1.43589,1.91593,-0.12966,-0.5634,1.03081,2.62779,-0.44766,-0.52001,2.60577,0.65313,2.37653,3.52216,-0.50453,-2.70705,0.16881,1.65378,-0.76689,-0.95325,1.13788,-3.07289,2.1771,0.66332,-0.38106,-0.12588,0.8812,0.67463,1.96758,-3.5819,1.34529,-2.3828,-0.39705,-0.42447,-0.76399,-3.97069,0.45023,-0.81714,-1.25759,0.13948,-2.20255,0.02868,-0.13364,2.20359,-3.39352,-2.61545,-0.10374,-0.33726,0.67864,-2.36501,2.52092,0.65145,-0.00312,1.17623,0.8994,-1.78051,1.7027,3.976,-4.22391,-1.49952,0.47355,-0.21034,-0.30277,-3.04106],"b2":[-0.11825,-0.04093,0.53518,-0.37558],"trainedAt":"2026-06-30T05:12:51.305Z","note":"step-selection MLP entrenado con gramatica de patrones (JS puro)"}