{"inDim":33,"hidden":64,"hidden2":48,"out":4,"W1":[0.01816,0.06849,0.09583,0.24261,-0.28222,1.20311,-0.16612,-3.22217,-1.43326,-1.13974,-0.55222,1.40018,-0.86567,1.2969,-1.2161,0.20712,-2.49881,-5.10609,1.11719,-0.34737,-5.43617,2.97185,-0.5454,3.32696,-2.50033,-3.28131,-0.36697,-1.86593,-7.08486,0.04011,-0.53292,1.72201,-0.11733,0.43086,-1.99478,1.63038,1.40788,0.86922,2.48725,0.98601,-4.93848,-0.24674,-0.87319,-1.00847,-0.53847,-5.97897,-0.71146,2.4557,1.33707,0.18771,-1.66904,-3.54839,1.0179,-3.39116,-1.36412,-4.15951,-0.51219,-0.21967,-0.74044,-1.79568,-0.89298,0.60998,0.20419,0.46108,0.40935,0.18113,0.01417,-1.78005,-1.56089,-1.34932,-2.01403,0.9389,0.06367,-2.86577,9.13624,0.02654,-0.16285,-2.1772,-1.05161,-5.01758,-0.5625,-2.66476,-0.72916,1.24849,-3.23554,1.9407,-4.13209,0.77839,2.13864,0.54181,1.24639,-0.10015,-1.65207,0.06978,-0.22295,0.35525,0.48809,-0.00861,0.25455,0.43379,0.21058,1.16235,0.58166,0.08427,4.62483,-0.03811,-11.23206,-0.15886,-0.0086,0.30188,1.8679,-0.23886,3.02508,0.02833,-3.7961,0.1315,-1.66528,2.62714,0.62853,-1.7377,-3.56398,-0.49406,-1.50369,0.94148,-5.14154,0.03003,-1.04156,-0.5841,-0.54808,-0.2206,-1.22894,-0.02379,0.55765,-1.17524,-1.07769,-0.16705,-0.94822,-3.24942,-0.11356,7.59957,-0.66423,-0.55881,0.18478,0.88561,-1.95961,0.79962,-4.11848,-1.48736,-1.85056,1.50556,1.18555,1.12587,0.27713,-1.068,-5.22071,-4.85219,-5.0599,1.63792,1.28142,0.87632,0.77783,-0.20453,-4.90578,-4.82398,-2.36878,-0.17913,-0.14302,0.08202,-0.03206,-0.23356,-0.13187,0.03353,-0.05896,-0.22948,-0.13786,0.06262,-0.17307,-0.23817,-0.02386,-0.20912,0.08632,-0.20961,-0.10513,-0.00432,0.01393,-0.10802,0.03925,-0.21977,0.05044,-0.19865,-0.01894,-0.2037,-0.15907,0.08588,-0.09631,-0.19377,-0.23794,0.00887,-0.39755,-2.94821,-0.84416,2.17958,0.22139,0.13466,-0.83486,-0.74449,0.62151,-8.50677,2.88885,-2.78267,-0.13245,-2.30943,-3.8754,0.69565,-1.31129,-0.35889,-0.42015,-0.58005,-0.07997,-5.53883,-0.30186,0.38566,-0.61136,3.85776,3.8459,-2.1518,-4.34288,-6.49512,1.47454,-0.49353,0.29789,-0.40281,-0.74131,-1.39629,-0.5361,-0.37721,0.42463,0.9646,-0.79277,2.44247,-0.1686,-0.12429,-2.1252,1.30821,-0.98637,-1.08265,0.52713,-4.41934,-1.56068,-7.79615,-5.04624,-7.87806,-1.94059,-3.27588,2.93706,-3.82409,0.69781,-1.52975,-0.30202,0.67969,-0.92486,0.86423,1.34865,-1.31771,-1.39762,-3.02323,-2.38445,-3.04935,0.63233,0.84661,0.71867,-2.47482,-1.37621,-0.34057,-2.71294,0.04129,-2.3945,0.34939,-0.54102,-3.34243,0.05369,1.11029,-2.12724,3.63311,-3.38882,-1.78697,-0.57903,-2.47613,-3.41699,-0.94294,0.81319,1.26508,2.44068,0.36246,-0.0648,0.52988,0.98231,-3.82569,2.24332,-7.62429,-7.82126,-7.7319,2.54879,-0.25229,2.05722,-2.42031,-0.65769,-0.8564,-0.80931,0.9888,-0.49556,0.21704,-0.56407,-0.73913,0.49586,-0.5368,-0.6617,0.23515,1.27837,1.86555,2.15,0.93974,-0.26737,-0.53349,0.13667,-0.17701,0.76782,0.61502,1.58987,-0.75381,-1.49707,-4.6388,-0.59449,-1.12875,0.6755,-0.45834,-1.36063,-0.22482,-3.05884,-3.23413,-4.58835,-4.4023,-0.60815,-3.39818,-2.05785,0.34924,-1.56784,-3.71725,0.38284,2.47071,2.13484,1.4053,-0.67145,-4.0194,-1.73691,4.32216,-0.42269,0.70849,-2.87218,2.05628,1.05761,2.47191,-0.38776,-1.81876,-0.42442,0.50528,-0.58831,-0.97142,-0.1105,0.01732,-1.74495,-3.03741,1.36486,-0.4643,-3.61368,1.76521,-2.5833,-3.4029,0.96604,0.3192,-1.0148,0.50152,-4.98546,-6.31041,-6.02552,3.49439,1.9132,-1.03042,0.18004,2.12426,-0.98859,0.31818,-1.78151,-0.99536,0.21221,-1.73099,9.30229,-1.07871,-9.08151,-9.55323,-1.07672,-2.7425,0.06958,7.98716,-3.82987,-0.2704,-0.05159,-0.93141,0.00247,-0.07393,-1.67602,-1.55869,-0.78652,-0.34838,-0.40003,-0.43304,-0.61146,-0.16281,0.03279,-0.3551,0.02739,0.30678,0.30507,0.19966,0.05749,-0.03824,-0.03912,-0.05153,-0.11569,-0.22029,-0.11018,0.18384,-0.07616,-0.16961,-0.0166,-0.0962,-0.36034,-0.19667,-0.03644,0.13035,-0.36173,-0.21468,-0.17877,-0.06458,-0.06718,-0.1654,-0.05476,0.05001,-0.12556,0.07631,-0.23788,-0.21748,0.02389,0.03431,0.01254,-0.07748,0.08789,0.06775,-0.06345,-0.12302,-0.29476,-0.08842,-5.70343,-4.15012,-4.9667,-2.54012,2.65011,0.50524,0.19978,-2.10997,-0.6521,-4.01126,-0.11052,0.68959,0.1284,1.61174,-5.58338,2.14538,-0.28832,2.67604,-0.28218,-1.46865,-0.25784,-4.07593,0.51164,1.18089,0.14319,0.125,0.34626,0.12092,0.12662,-0.0605,0.0375,-0.15364,-0.33819,-0.85215,0.51251,1.13706,1.60426,-5.49926,0.05232,0.05828,2.07871,0.59389,1.06309,0.70422,-7.20803,-0.1239,-0.14363,-0.44173,0.27029,-1.59671,-0.94756,-1.08511,-0.15587,-1.17664,-0.57586,-0.28017,-7.56506,-2.38064,0.82627,1.17814,0.99888,0.72436,1.37369,2.16319,1.08695,-0.03164,-0.36781,0.08969,-0.03043,-0.08316,-0.19041,-0.13915,-0.11956,-0.03368,-0.27511,-0.19288,-0.07011,-0.08509,-0.20598,-0.01436,-0.0203,0.03648,0.00005,-0.03491,0.10724,-0.06238,-0.09824,0.01291,-0.03554,-0.13762,-0.04008,-0.09702,-0.18447,0.07045,-0.15016,-0.13987,-0.17908,0.06741,-0.10892,0.9061,0.15401,-1.35112,-0.92633,-0.08221,3.96508,0.26928,-3.00239,-0.46002,-0.14446,-6.66184,-1.30389,-2.235,1.1783,0.96144,1.62082,1.33799,2.28789,-5.68204,-4.58206,-5.07989,4.66774,4.14023,3.3388,3.00311,-1.76394,-4.15661,-6.09205,-3.53637,-1.21148,-0.22625,-2.28569,-0.9661,-3.74002,-1.35367,-4.60848,-4.48377,-1.50328,-9.56813,0.04665,15.83958,-0.94435,-0.3105,0.16983,0.3719,-0.62351,0.67388,0.2245,1.01278,0.89475,-0.29478,-0.40667,-0.35282,-0.31722,-0.37012,-0.29999,-0.16043,-0.10575,0.27899,0.03611,-0.01486,-0.05594,0.29315,-0.00503,0.01446,-0.21591,0.09028,-2.87943,3.6572,2.44216,-2.40104,-2.95618,-0.08846,-19.27254,-0.30384,-0.27018,0.10664,1.50953,1.36561,0.43233,0.4846,0.7059,0.64084,0.57917,0.64654,0.61889,0.46768,-0.37317,-0.39874,-0.08645,-0.49717,0.08336,0.04488,-0.11704,0.2141,0.15078,0.04758,-0.10515,-0.087,0.04641,0.04592,0.34681,0.40295,0.57506,-3.07657,0.59823,-2.87167,1.52586,-0.64041,-4.95839,-4.80141,-1.36743,-2.63198,-2.77137,-5.08386,0.275,-1.93428,2.22938,-3.07325,-1.25037,1.42334,-3.05485,-6.04532,-6.21051,3.74935,5.64945,4.2568,3.96889,-5.25836,-6.69025,-2.9139,-0.43535,0.50908,0.63333,0.77103,0.1207,1.09566,-0.33021,0.00439,-3.94757,-0.61101,0.23435,1.05742,-0.41196,-1.25638,-0.14833,-2.68058,0.37869,0.05705,-1.63823,-3.86936,0.09274,-4.25059,-2.43328,-3.2376,-3.54677,1.07103,-1.93401,2.62693,-2.81226,-2.83635,3.78909,-1.916,-2.56243,-2.15821,0.64501,-1.76955,-1.87077,-1.70055,-1.28288,1.73991,-0.19258,-0.69086,-0.29239,-0.67127,-0.81141,-1.02519,-0.92842,-0.2993,-0.75368,-0.6184,-0.2504,2.6452,-2.46546,-4.07221,0.51526,-1.19024,-0.1064,-0.06443,-1.1514,4.75077,-0.68038,-1.8246,-3.09483,2.61312,1.97057,2.28343,1.36692,1.83521,-4.60468,-5.09812,-5.17523,1.8044,0.64776,0.24803,-1.61733,0.70347,-8.17881,-5.61479,1.23654,1.29227,0.57552,0.41633,1.52165,-5.89897,-2.75299,-8.11464,-0.33797,-7.39103,-0.99612,-0.7752,-0.1506,-0.14648,-0.02399,-0.57262,0.05492,-0.14654,0.42718,0.29666,0.49235,0.08266,-0.62784,0.26637,0.62861,0.36448,0.72432,3.6364,-0.48002,-9.7686,-1.68181,-0.04074,0.71781,1.61332,0.20174,-1.96306,2.28132,-0.46814,0.69003,1.04288,0.53054,1.78375,-0.35331,0.12785,-0.92032,-0.24475,-0.71435,-0.98906,-0.31428,0.72879,-2.99095,1.10103,-0.2721,0.49289,0.7566,-0.2759,-0.89532,-0.63462,-0.26998,-0.25089,-0.72974,0.41745,-1.12381,1.32008,-0.14822,0.90287,-2.34409,-1.92356,-0.59144,-7.53823,-1.11917,-1.22337,-5.70959,-5.89233,-2.56573,2.5788,3.8898,-4.00226,3.08625,1.40331,1.25941,0.55892,-6.76054,-0.73036,1.82339,-1.30521,-1.92333,-3.27036,-1.88162,0.20166,-0.77669,-0.40308,-0.6374,-1.00318,0.02107,-0.02437,-0.9971,-0.59445,-0.01447,-0.54681,-0.21657,-0.43279,-0.19491,-0.64196,-0.02556,-0.30251,-0.0303,0.22275,-0.79273,-0.37948,0.0948,-0.75517,0.05839,0.03341,-0.18141,-0.66698,0.17865,-0.4957,-0.56694,-0.5952,0.30148,1.64855,-5.87569,-4.82422,-4.16312,0.60099,0.60157,1.0706,-1.63281,2.78498,-2.75106,-0.14149,-0.88883,0.98798,-4.95411,-1.89364,-6.02504,0.39298,0.24726,0.12346,-0.30199,0.3266,-1.32079,-5.75191,-0.88185,-2.36869,-1.46116,-0.93999,-2.13903,-1.02355,-2.36701,-0.00023,0.99477,-1.77814,-0.05076,0.67445,-4.46454,-3.86855,1.08602,1.6378,-0.0986,-6.40254,-4.23628,0.3289,-0.70806,0.74849,1.30454,1.24888,-0.96636,0.87031,0.97007,-3.44567,1.67263,1.90542,2.05591,1.4541,1.29809,1.19823,1.44948,-0.98706,-0.88498,-0.85427,-1.06449,0.10519,0.61384,0.70814,0.12792,-0.90889,0.35501,0.27309,0.2209,0.28505,2.46964,0.01672,-9.59954,-3.70412,-0.16208,-0.23496,1.40284,2.21169,1.93357,-4.15258,-0.06863,1.90875,2.46831,1.36685,0.39428,-4.1332,1.41173,-4.93961,-0.69047,1.36462,0.81494,0.16718,0.40225,-0.34599,-0.10768,-1.33024,-0.88586,-0.22357,-0.38495,0.0474,-0.01639,-0.21747,-0.1291,-0.19018,0.00379,-0.15004,-0.04554,-0.07757,-0.27069,-0.19433,-0.26161,0.0484,0.0284,0.15763,-0.10532,-0.2301,-0.27346,0.04281,0.09609,-0.13166,-0.33984,-0.12992,-0.23265,-0.15703,-0.13838,-0.07457,-0.25627,0.03116,-0.10747,-0.30879,-0.1943,-0.18879,-1.43944,-1.40839,-1.58761,-1.79714,0.34243,-0.08461,-2.46314,9.34986,-0.08538,0.47753,-0.80001,-2.00614,-1.60371,-2.25029,-0.99735,-2.02972,2.07194,1.69892,-2.54162,1.47468,0.78641,0.29194,-0.07557,-5.85277,0.94269,1.0591,-0.92841,1.27215,-0.2237,-0.61005,-0.09765,-1.74224,0.25206,-1.63261,-1.60447,-1.74126,-1.90323,-0.42625,0.04674,0.44413,8.94512,0.31407,0.06415,-2.82694,-3.24121,-1.07448,-1.78669,-0.59848,-1.00079,-2.87023,0.73141,1.24312,0.76249,1.51753,-4.59446,1.69727,-4.82859,0.18207,0.11422,0.12931,-0.78201,-0.33634,-2.95927,-0.16182,-0.43705,-0.30763,-0.84762,0.0157,-0.54415,-0.07571,0.21909,-0.41258,-0.0176,-0.11446,-0.67699,-0.06452,-0.42204,-0.22597,-1.15336,-0.00941,0.15149,-0.09197,-0.28982,-0.31726,-0.85366,-0.34341,-0.40643,-0.17242,-0.13267,-0.16545,-0.21673,-0.44981,-0.2394,-0.07571,-0.30463,-0.39169,-0.52217,-0.20585,-0.15854,-0.26306,-0.06535,0.19106,-0.13671,1.29477,-0.94511,-1.00039,-2.07589,-0.57008,1.90159,-0.54905,-3.5037,-2.74145,0.12157,1.03132,-3.2828,-5.19784,1.0971,2.3117,-4.69341,-1.97569,2.01702,1.28917,-4.29565,1.5854,-4.22504,1.0746,-0.95158,-1.5642,1.40903,-0.21298,-1.0346,0.10173,-1.23404,-0.96195,-0.71101,-3.07606,-0.16636,-0.40773,-0.30123,7.44801,1.56587,0.84004,-0.0456,-0.46482,-2.92336,0.16326,-0.34953,-0.45252,-0.0367,0.50131,1.21875,1.89251,-3.32626,-0.26418,0.19731,-0.03622,-2.30734,-1.14557,-0.43668,-0.05695,-2.10519,0.12636,0.25764,0.22849,-0.06413,0.45787,0.7318,1.18865,-0.4882,1.58842,0.00577,-1.2694,0.53041,0.24986,1.38509,-0.79903,-2.40567,-2.04852,0.39025,-3.03416,-0.46054,2.01636,-0.57435,-4.0731,-1.71557,-1.98536,1.66413,1.23655,-4.99644,-2.07923,-5.53769,-3.77547,0.42705,-3.234,3.79184,-2.03754,-3.60759,0.19333,-0.13927,-7.00653,-3.11503,0.17793,2.14765,0.39812,-5.23445,-0.37695,-1.0087,-1.79516,0.6345,-0.99283,0.85291,-0.09572,-3.50478,0.26898,-0.54455,-3.13602,-2.30144,1.86053,-5.38449,1.926,-0.59354,4.45639,-2.4858,-1.30534,-0.93275,1.61442,0.43102,0.35445,-2.12303,-1.07229,-7.27964,-4.08054,-5.9765,-4.1652,2.00952,3.57167,-0.27845,-3.91914,-4.15814,0.27633,0.36737,0.4169,0.74305,1.5707,-1.70323,2.95185,-2.69505,-0.11411,-1.19491,-0.18953,-0.49587,1.2661,1.88885,0.4632,0.22057,0.23641,-1.32801,0.33349,-0.46804,0.24208,1.45138,0.51799,1.26581,-0.79674,-4.0759,-4.8165,-3.41392,-0.09582,-4.32991,-3.30051,-3.11119,0.94553,-2.18414,-3.17176,-2.59421,0.1831,-1.28571,-1.26426,-1.56104,1.94589,2.22623,-1.921,-0.44129,4.56593,0.6421,-0.37021,-1.90264,0.17734,-5.30419,-3.66707,-0.8603,-5.66008,-0.11924,1.00644,1.56464,-4.54244,0.38214,-1.24525,-0.7005,-1.13088,-0.86611,1.5696,0.42799,-3.32115,1.14876,0.39196,-1.3107,-0.84276,-0.08343,0.73647,-2.33278,1.12553,-1.81771,-0.98216,-6.40351,0.85407,-6.53167,5.15647,-2.46916,6.26675,2.29409,-1.538,-0.91721,1.07773,-3.11097,-1.52498,-4.322,-1.89408,-3.78446,0.25688,-5.40884,2.38761,2.40896,-5.55276,-2.69817,0.10587,7.64715,-5.27995,-1.07988,0.11016,-0.0832,0.15438,0.0303,0.154,-0.19603,-0.11237,0.23433,-0.43833,0.04119,0.34304,0.45136,0.32079,1.1468,0.52959,0.52137,-0.15374,0.28583,0.36008,0.55869,0.38253,0.96094,1.02994,-2.47302,-3.37623,-3.35102,-1.51708,2.61962,0.28371,0.55791,-0.80903,0.51908,-5.70085,1.43622,-0.46132,-4.95545,0.9935,-5.73477,-4.30819,-2.09045,-5.38055,-0.38164,-0.48147,2.85607,-7.54922,0.4443,-0.33204,-0.85837,1.65984,1.03529,0.59801,-0.73364,-0.4594,-0.61873,-0.86227,-0.14584,-0.07801,-4.36282,0.14383,-0.09637,0.9235,0.96861,0.54479,-1.48749,-0.04128,-1.69509,0.08422,-3.57926,0.77991,-2.24739,-2.32528,-3.21001,0.88596,-0.76397,0.51588,-0.7756,-0.59911,-1.6934,1.50549,2.79654,-0.67847,-1.39557,-1.48589,-0.11317,-0.56656,0.32794,-0.33197,0.06392,0.37733,-1.87644,-2.59745,1.99001,1.80744,0.35446,-0.63831,0.05878,-1.78687,-0.33898,-1.40962,1.01365,-4.53297,-0.11872,-3.32626,-2.66731,-0.14626,-0.49544,-3.75076,0.59991,2.44313,1.11595,-0.47059,-0.88352,-6.72498,-5.73104,-3.03786,-2.00019,3.76207,3.74692,-0.77044,-1.51174,-2.42043,-1.57392,-0.59098,-0.31296,0.44498,0.30401,-0.3357,0.79223,0.64231,1.88382,0.43305,-0.6906,0.36743,-3.39377,-0.91271,-3.55512,-2.17765,-4.44446,0.34844,-0.51053,2.00339,1.68679,2.20162,-2.10742,-0.93074,-5.40065,1.97397,-1.62326,0.35991,0.82513,-0.1917,-2.14045,-0.76453,-2.06119,1.00082,0.16089,-1.07529,-0.17171,-0.10615,-0.1918,1.6325,0.19946,-5.44085,0.29452,-0.73755,-0.51272,1.86785,-1.89625,1.76139,0.7297,-1.41529,-1.48478,-4.75442,-1.13945,0.55671,-0.4197,-2.23645,0.96381,0.86013,1.26115,1.60245,0.12674,-3.79132,-3.95554,-4.31754,-5.14212,0.92178,0.07891,-0.6334,-2.12882,-0.99973,-1.25269,0.36443,1.17914,0.52801,-5.17139,5.75365,-1.21702,-1.2069,-4.86774,-0.10472,-2.5104,-2.26758,-0.54977,-0.22409,-4.06253,-1.69705,-3.31665,-1.65885,0.41681,0.60592,-0.90201,1.60566,0.93769,0.24034,0.03236,3.38687,-0.6931,-0.24811,-4.2006,0.69458,0.42362,0.53546,0.35915,0.68418,-0.46446,1.04808,-0.96075,1.52985,-0.87077,-0.52548,-3.75409,-4.14644,-0.29157,-2.84492,-1.81451,-0.68893,-4.25966,-2.0795,-3.49251,-3.89116,2.76703,-0.11342,2.9875,0.17723,-3.88547,0.53504,-4.16087,-4.43642,-0.47775,0.3725,0.25615,1.17984,0.13396,-0.44164,-0.5475,-1.23238,-1.01532,-1.22032,0.99313,0.4581,-3.13106,2.24193,0.5155,2.62023,-1.23114,-5.05859,-6.41885,-0.56599,-3.42243,-4.05667,-0.25576,-1.28491,-0.90041,-3.46642,3.68414,-4.67144,3.52747,4.50115,0.10824,-0.12531,0.61901,2.81853,-2.52962,1.02949,-2.05705,-0.90656,0.02072,-0.21548,0.37496,0.59226,0.31001,3.20934,-0.027,-6.99708,1.11716,-1.90871,-0.79918,0.84834,-3.08586,-0.25691,0.22352,-1.668,-4.01301,-1.19661,-2.13516,3.06052,2.77872,1.584,1.69787,0.0572,-5.10134,-6.4271,-6.0418,-0.07763,0.20885,0.37458,0.91978,0.3718,0.02932,-0.78315,-2.04606,1.4963,1.14422,0.13337,3.44901,2.10058,-2.01457,1.11195,-0.07476,1.00528,-6.43886,-1.25076,-1.81591,-1.02936,-2.8878,-1.38785,1.87686,-0.03799,-3.27587,-0.71177,-0.89489,-1.41866,0.8579,2.13811,-0.14414,-0.47043,-3.93571,-5.56047,0.56403,-0.86767,-0.96682,-0.36918,0.32845,-0.88874,-1.15948,-1.00655,0.31072,2.28978,-0.07507,-4.2674,1.2483,-0.59882,0.09284,-4.44073,1.10526,-1.50897,-2.26956,1.9527,-5.30076,1.39931,1.94058,-0.32439,1.98771,0.03942,-0.44318,-1.55566,0.10804,-0.47772,0.20349,-0.4223,-0.88165,0.60714,0.77177,0.01169,0.16681,0.7878,-2.40424,-2.75233,-3.16698,-2.18321,0.82985,0.04968,11.50091,-0.3088,-0.30949,-1.94124,0.43272,0.23302,-2.33027,-2.38879,-2.18274,-2.56913,-0.00217,-2.34198,-0.93567,-0.412,0.48546,0.62578,0.21268,0.29351,-0.48628,-0.95638,-1.3516,0.09391,-0.30269,0.23692,-0.06489,-0.20983,-0.70495,-1.19035,-2.47767,-3.94257,2.41756,1.22791,-0.00687,-4.20766,-0.52835,-4.56213,-6.41846,1.64461,1.32842,-0.54132,2.13613,1.63045,-0.44881,-0.79262,-3.25166,-2.16301,1.06424,-0.97607,-1.83805,-1.05767,-0.92047,-0.40874,-0.19145,0.06936,0.02514,-1.23871,-0.21234,0.11711,-0.24403,-0.58905,-0.40514,0.83986,0.2578,-0.54785,1.50235,0.45987,-4.35775,0.09693,-1.25199,0.46629,-3.5866,0.71158,-2.18139,-2.62255,1.18323,-0.07126,-4.05498,-1.62054,3.90947,-5.11136,0.8587,1.90731,2.45343,1.73805,-2.0919,-7.89938,-1.14113,-2.0501,-1.18702,0.67449,1.47045,0.27407,-0.43845,-1.22008,-2.13044,-1.9876,-1.57436,2.67108,-0.3424,3.84115,-0.64079,-0.5188,-0.455,0.48966,0.75397,-1.21967,-0.83935,-0.22301,-1.19792,-4.81491,-3.86521,-5.74135,2.31379,3.36452,3.6641,3.5902,2.88146,-9.48325,-5.6486,-7.20763,0.0741,-0.59589,0.21442,0.19697,0.11927,-1.23787,-1.86075,-1.16634,-0.69669,-0.71069,-0.46732,0.57344,0.18621,-1.0564,-1.0477,-0.61773,1.12895,-1.52913,-9.19871,1.73268,-6.20923,-0.82451,1.55483,3.86036,-0.60679,-4.71012,-3.69783,2.41592,-2.65762,-1.52205,0.58363,3.18283,1.04127,-0.9384,-2.37993,0.20587,-3.08612,-1.97269,8.75002,-4.88597,-4.91644,-4.43319,-0.786,0.34718,-0.44668,-1.49412,-0.40097,-0.31629,0.51336,-0.52623,-1.71405,-6.02595,-0.74102,-2.1142,-2.82357,1.34013,-4.97888,0.66353,0.71395,-0.54218,0.63839,1.19241,0.85915,-5.07695,0.73108,0.4118,0.47784,-1.31679,-0.6996,-1.0943,-0.72447,0.03209,-0.88413,-0.48476,-1.03865,-0.90167,0.83304,0.03244,-6.60015,7.38919,-2.55604,-0.3711,-0.41968,0.43319,-0.41103,-2.22732,0.25456,-0.14608,1.21063,1.12008,-5.42141,-4.52045,0.2023,1.38912,1.54349,1.66368,0.1084,0.35962,-0.98081,-1.01696,-2.02133,-3.53707,-0.77643,-0.84814,-12.93305,-5.3596,-3.67479,-4.11706,2.89319,-0.26598,0.07279,0.67029,-0.11275,-1.99831,-1.25508,1.32005,2.70988,0.59578,0.83431,0.97172,0.95947,-2.03047,-0.26049,-0.5292,-0.1262,-0.11257,0.13376,0.0123,-0.0258,-0.06642,-0.39041,0.12251,-0.14325,0.04218,0.01707,0.40699,-0.15436,8.13826,-2.20923,-7.67612,-5.9422,0.40025,1.85564,0.81288,-4.77172,-0.27199,-1.2067,-0.42721,0.09315,-1.6301,0.37992,-0.62311,0.14297,-0.75911,-1.49005,0.14238,-1.15065,-0.17716,0.34832,-0.43901,-0.18882,-0.57267,0.83185,-0.91979,-0.90699,-0.65929,0.22032,0.5818,0.94328,1.04288,-0.7071,2.20756,1.37996,1.4421,-4.12956,-4.06111,0.3594,-12.43677,-3.67748,-1.5457,-0.10211,1.17873,-1.2808,1.41223,1.25785,-0.58823,-2.17306,0.81468,-0.38122,1.43337,1.03422,3.17595,3.31398,3.47788,3.89362,-0.29032,-0.03738,-0.23932,0.03766,0.2692,-0.10537,0.0388,0.32562,0.12162,-0.15479,-0.03003,0.12918,0.25866,-3.35976,-0.03235,-13.57637,-0.1797,-0.01455,0.14261,1.48174,2.07365,2.26804,-3.10875,1.30127,1.40339,3.02111,2.02271,2.60661,2.83692,-0.84835,-0.90977,-1.37828,-5.24512,0.60756,0.21829,-1.20501,0.04094,-0.97694,-0.03741,-0.77558,-0.22351],"b1":[-0.45348,1.69009,-4.59172,1.74106,-2.59813,-0.17073,-0.4156,-2.71111,-1.33371,-0.69813,-1.5926,-0.40672,-2.40448,-0.1071,1.11815,-0.75107,-0.08359,-0.9546,-2.88405,1.66866,-2.68758,-2.63594,-2.79702,0.58647,1.34242,-0.78695,-0.54825,-0.74692,0.00265,0.10626,-0.2014,-3.66636,-4.04475,-0.36615,-1.46272,-4.15166,-2.36135,-1.35419,0.6264,-1.66469,-2.15274,-0.49876,0.78685,-0.03843,0.62831,-1.26983,-0.52579,-2.02347,-3.38664,-1.06648,-0.03842,0.25684,0.41938,-3.41828,1.13205,-0.43481,-3.18,-1.17163,-2.83186,-2.18792,1.72882,-0.91901,0.23797,0.75095],"W2":[0.72526,-0.19425,-1.13898,-0.0273,-1.20639,0.19069,-0.82247,-0.30704,-0.37907,-0.4479,0.26202,-2.79257,-0.72625,-0.26418,0.19381,-2.62529,0.06673,0.25954,-0.92149,2.31218,-5.91115,-3.7742,-0.67704,0.3169,0.2923,0.02858,0.17779,-0.7718,-0.65544,-1.18818,0.13166,0.25679,1.09103,-0.26144,0.47794,-0.51216,0.13797,-0.04902,-3.05526,-1.10069,-0.09686,-0.4661,0.41763,-7.51701,-6.73517,-0.59797,0.31617,-3.7628,3.18552,0.16168,0.96602,-9.90665,-4.35452,-0.22928,0.51068,-2.71278,-0.00176,-0.08993,0.00757,-1.74941,-1.89626,-0.01315,1.60203,-0.40533,-0.13406,-0.16122,0.03821,-0.11982,-0.04087,-0.1644,-0.24621,-0.20196,-0.9637,-0.60475,-0.03825,-0.14915,-0.4027,0.12308,-0.1279,-0.157,-0.1956,-0.17363,-0.3671,0.03236,-0.26227,-0.20582,-0.11713,0.02651,-0.49801,-0.43063,-0.16472,0.01585,-0.4955,-0.37886,0.09718,-0.23004,-0.29959,-0.21295,-0.26409,-0.0498,-0.00188,-0.56127,-0.3587,-0.06584,-0.23556,-0.31218,0.14018,-0.11566,-0.14156,-0.16874,-0.21835,-0.28122,-0.01326,-0.00776,-0.13454,-0.17297,-0.05381,-0.33971,-0.10095,-0.2217,-0.19663,-0.21425,0.02347,0.11203,0.04676,-0.2479,-0.11022,-0.29507,-8.97954,0.53662,-2.64167,-0.32514,-6.55987,0.15327,-1.93821,1.45975,-3.88472,0.22303,-1.79098,-0.87031,0.50335,0.03161,0.34523,0.19607,0.1155,2.14595,3.04892,-2.44893,-0.04546,-3.22691,-12.20185,0.29744,-0.2052,-0.40302,-0.13473,-0.03588,-0.95833,-9.5569,-0.05032,-3.25353,-6.0061,-0.45513,-4.00597,0.12756,1.4859,0.22354,0.70642,-3.44564,-5.18548,0.0908,-0.17928,-0.5234,-0.01738,-3.95148,-3.77947,0.73819,-0.8339,-0.17422,-0.27164,0.81933,-0.63455,-13.36468,-0.32445,-5.41793,3.19996,-0.46175,-0.7225,-7.26832,-0.24591,-0.69729,-0.47404,-9.90902,-4.92815,-2.24195,1.08332,-3.56114,2.29794,0.03037,-0.14794,1.6954,-6.66923,-0.5014,-1.34872,-1.51565,-0.68836,-0.14901,-1.31926,-2.72468,0.10837,0.41853,-5.49693,-5.86955,-2.27977,0.16631,0.47666,-0.06661,-1.94356,-3.32237,-0.89745,-4.56604,-6.0458,3.22983,-0.1593,4.28146,-4.91776,-0.23697,-1.08227,-0.6766,-1.26539,-1.83689,1.10644,-0.12365,1.20313,-0.40997,-3.69745,-1.15553,-2.2914,-1.86896,-0.74683,-1.70368,-1.15487,-3.08826,-10.46893,-0.34065,-1.52531,1.34632,-0.01302,-0.71625,0.40579,-4.19468,1.46905,1.05798,0.50897,0.0326,0.03538,1.30351,-2.37073,-7.09258,-2.10752,-1.68906,-2.81946,-0.13063,0.6522,0.56925,-5.46146,-1.20762,1.33714,-0.24159,-5.14627,-0.12626,0.65098,-0.01148,-0.07842,-0.77255,0.58111,-7.49851,-6.18504,0.90648,0.01032,-0.46415,-1.05755,0.46935,0.54282,0.2453,0.8086,0.96889,-0.05338,-1.00363,-0.42852,0.303,-0.69296,-1.46656,0.78435,-0.42855,0.71451,-4.98418,-2.34426,1.81335,-4.83193,0.89368,1.24186,-2.28563,-12.75785,-2.65676,0.48572,-1.97053,-9.18352,0.11265,-0.10016,0.25122,-1.11421,-0.14947,-0.09482,-0.80587,-1.90869,-2.25494,0.11983,1.00961,-9.29537,-2.74661,-0.26778,-0.2314,-0.99974,-0.6593,-0.93349,0.14376,0.46498,-1.97878,-0.07125,-8.52807,0.46562,-5.01721,1.39616,0.0968,-0.76395,-3.54994,-0.00998,-2.4479,-0.86444,-7.67072,-3.14012,-0.16307,0.23766,-0.787,-0.0014,0.58764,-0.76966,0.6333,-0.15986,-0.52636,0.02981,-0.36533,-2.35686,-0.01462,0.18661,0.11606,0.22835,0.79436,-0.40333,0.34798,-1.17639,1.79364,0.12254,-0.04606,-0.83568,-0.89265,0.32179,0.91718,0.7667,-0.09612,0.63029,0.14104,-0.35667,0.30447,0.21211,-0.4322,-0.52677,-3.64613,0.08231,-5.3526,0.76769,-0.4205,0.52729,-1.3697,-0.54211,-5.33746,3.85939,-3.25506,1.39297,-0.00137,1.51223,2.08586,0.05327,0.36659,1.043,-2.69016,0.14097,0.05402,-0.34483,1.31884,0.05506,-1.09998,-0.99029,2.46347,2.21521,1.45664,-2.64452,0.00803,-2.40034,-0.1491,-0.51602,-0.09256,-1.74634,-0.09306,-0.04088,-8.79345,2.93305,-0.21144,-3.36635,-0.23655,3.28686,1.82162,0.86291,0.0843,1.50559,-0.67453,-4.92814,-0.49608,-0.85413,1.81581,-1.4836,-1.52282,-1.14536,-1.80202,-1.08107,-5.42941,-2.38871,1.01115,-1.65365,0.47682,-3.69453,-0.57467,-0.15789,-5.80316,1.26101,0.26965,0.1088,1.29271,-4.5894,-0.33521,1.93595,-0.4428,1.23907,-0.00076,-11.13234,-3.9169,0.34935,-0.39425,-6.98016,-3.55875,-1.09315,-0.01182,0.5188,-0.40317,-0.01272,-2.32375,-1.39947,-5.70094,2.93667,0.04395,-0.58322,-0.22308,0.71981,-0.52694,-0.64098,-2.09684,1.11637,0.69337,-0.07082,-1.88688,3.20505,0.07458,0.36013,0.157,0.18585,1.47565,-0.56635,0.52625,1.44233,0.2319,1.46543,-2.06839,-0.96931,0.73108,-0.29335,-11.31292,-13.63212,-1.90504,0.31777,-10.95426,-1.34162,0.25934,0.37652,1.2787,-0.74516,0.53293,0.08521,-1.86923,0.08191,0.33121,-0.32757,0.10354,-4.24711,-0.12441,3.22947,-0.3964,1.40445,0.10043,0.30645,1.15553,-1.68261,-0.29244,0.72739,-1.17704,-0.33043,-0.17562,-0.83897,-0.20879,0.08997,-0.04574,-0.5345,0.06867,-1.57203,0.54865,0.23599,0.00977,0.47019,-1.18968,0.76009,-0.58372,-1.7801,-0.07333,0.05764,2.00675,-2.22701,0.13924,0.02742,1.31678,0.33018,0.32898,-0.15873,1.30833,0.34233,-0.07619,-7.72965,0.26736,-1.20027,-0.15609,-0.52188,-2.60083,2.25787,0.32897,-0.50498,-1.66373,-1.01971,0.9414,0.56972,0.36865,-4.68027,0.06525,1.38441,0.84805,0.7228,0.54419,0.3366,-1.83704,0.63134,-0.29612,0.08287,-2.02746,-0.56352,-0.02835,-0.43323,-0.6128,1.34159,-0.34646,-0.75075,0.06622,-0.29786,-0.07802,0.64232,-0.51794,0.01098,-0.40435,-2.75766,-2.76132,2.01854,1.3074,-0.61063,-0.52036,-0.72182,-0.70469,0.49413,-0.00545,1.4991,-0.51607,-0.05817,-0.06949,-2.62231,-0.06994,0.19312,-0.86844,1.7989,-5.32217,-0.57253,1.09187,0.05425,-5.59098,-1.01901,1.0867,0.26375,0.81021,-1.83227,-1.7275,-1.14963,-0.21859,-1.85903,0.48155,0.53291,-0.46376,-0.18799,0.74454,0.22875,-3.095,-0.74423,-0.11039,-12.50999,-0.10958,-6.81425,-0.42613,0.33174,0.28329,0.64434,-4.4965,0.99863,0.16834,0.31121,-5.57068,0.68786,0.4926,-2.03186,-0.25427,0.44281,-0.0166,-9.29529,0.14484,0.08373,0.25863,-1.45972,-2.00644,-0.26785,2.77758,0.19296,0.47295,-0.58787,-1.9501,-0.55684,0.71505,0.09374,0.14818,-0.03095,-2.40683,1.23592,0.05901,-0.00593,0.59975,-0.65224,-0.76684,-0.5444,-4.84186,0.6048,-3.80602,-3.56385,-0.16001,-0.27301,-0.02402,-0.53402,-1.22378,-5.00582,-5.48783,-0.20916,0.73396,-3.23271,-0.61222,1.01624,-0.3356,-0.02343,-0.98045,-1.23463,-1.97962,-0.7367,-0.4093,-0.9107,-0.84027,-0.87584,-1.48931,-2.64991,0.77239,-0.88319,0.04333,0.55011,-1.02178,-0.10696,-0.54063,0.12192,0.048,-0.37522,-0.18061,-0.20716,-2.57358,0.03542,-0.09384,0.78232,-2.94827,-0.15633,-1.07375,-2.0905,1.70691,-2.88836,1.07883,0.31456,-12.14173,0.54143,-0.71564,-0.04023,0.69513,-2.70132,-0.21672,-4.74899,0.97085,1.14937,0.3658,-0.01447,-1.95748,-0.24046,-0.90253,-2.42992,-0.68622,-1.9858,0.562,0.66494,-0.83277,1.66697,-1.50124,-0.20709,0.8606,-0.23439,-0.09736,0.12404,-1.13855,0.53691,-4.45341,-1.73122,-0.22805,0.06356,-1.31873,-5.4607,-0.67088,1.42282,0.61918,-10.34432,0.11969,2.17037,0.03444,0.24962,-7.35832,-1.71697,0.54227,-5.45634,0.55276,-0.05268,0.11303,-0.23203,-2.81344,-0.07601,-0.16317,-8.95308,-6.00325,-3.3884,1.4802,-8.64316,0.81628,-4.43192,-1.34454,0.39669,-7.36322,-0.1439,1.27769,0.04493,-1.04838,-7.16615,0.15612,1.9054,-0.25968,-5.21473,-1.55719,-6.06275,-1.72856,-7.59356,0.06477,-0.20267,-3.21328,-5.26354,1.7178,-1.14844,-1.42102,-2.42336,-11.57753,0.33046,0.85285,-0.79513,-3.46182,-1.58416,-12.61017,-10.54749,-1.15028,-8.91113,-2.26118,0.56163,0.37888,-1.1763,2.16762,0.23882,-0.22171,-2.11662,-0.85435,0.13043,-0.07402,0.50774,1.6953,0.53433,0.41768,1.37793,0.02142,-6.27689,-0.03619,-0.10862,-0.39146,0.10797,0.65498,5.63206,-0.81036,-2.11809,-3.38898,-1.35996,-0.02859,-0.54686,0.05391,0.56941,0.12993,-0.70066,-0.64701,0.06236,0.25055,0.06739,-0.30856,-0.69478,0.3394,0.91676,-0.59459,-0.32422,-0.25387,-0.29559,0.05694,-0.10594,-1.06439,1.9274,0.74797,-1.31902,-0.38739,1.89002,0.45724,-0.52072,-0.06931,-2.69944,-0.10476,-0.19713,-0.25207,-1.02155,-0.82816,-2.05742,-1.15486,-0.20403,-5.87946,-0.60121,-1.55189,-1.53917,-8.25193,-0.38029,-0.50741,0.12648,-0.18226,1.00668,-0.97871,0.1078,-1.08425,-0.41207,-0.23008,-0.80542,0.0787,-0.14096,-0.20951,0.09645,-0.44603,1.59759,2.58432,-2.23587,0.42581,0.02299,0.48856,-0.15156,-1.9064,0.67508,0.65947,-0.60001,0.78734,0.11762,-3.21526,-0.03639,0.39123,-0.08717,-1.08084,0.37464,0.08883,-0.21347,-1.56159,-0.08659,0.29683,-10.11596,0.3218,0.86919,0.68932,-2.47774,0.2806,-0.5192,0.59292,-8.14265,0.212,0.3232,-1.31746,-0.53487,0.17258,-0.07668,-0.01785,0.35194,0.62771,-0.40198,-0.20997,-5.63066,0.37085,-0.18985,-0.04711,-7.58747,-1.63841,-0.0527,-0.08651,-0.24305,0.46081,1.33561,0.40249,-1.79671,-1.41666,-1.00022,0.01344,-3.27741,-0.82521,-0.08152,-1.46694,-3.76558,1.64483,-1.57237,-1.11079,-1.94468,2.27906,-0.39426,2.1791,-0.16329,1.55119,-0.51386,-5.75054,0.21443,-2.55039,-1.53746,0.03697,1.50494,2.61775,2.31605,0.02854,0.87371,-0.30338,0.20243,-0.60478,-2.45141,-3.51831,-0.05176,1.42325,-0.92432,2.29324,1.45593,-0.22941,-3.65548,-0.69858,-2.43964,-2.42813,-1.51191,-3.77843,-0.96904,-2.96216,2.64508,-1.42448,-5.79621,0.47991,0.36598,-0.70345,0.94239,-1.55348,-1.18424,0.12189,-0.07841,-0.01155,1.69288,-8.74235,-0.75877,-0.25038,-6.24918,-6.38934,-1.77513,-0.15867,-1.105,-2.61911,0.13158,-5.97895,-1.49033,-4.08211,0.67871,1.52143,-1.81363,1.19667,-2.43365,-5.60973,0.039,-1.22113,-0.92448,0.8085,0.01159,2.65737,3.55913,0.29999,-1.69432,-1.06505,-5.48374,0.31947,0.67694,-1.71243,-2.15845,-0.02222,1.05318,-3.11235,-11.43989,-9.0358,0.41738,-0.22049,-1.58555,-1.30806,-4.72656,-4.75791,-8.60062,0.11587,-2.99059,-5.54262,-3.18799,-0.99906,0.61272,-0.03835,1.31942,0.70744,1.06223,-1.53272,1.35244,-2.04266,-1.42294,0.23716,0.05347,-0.0721,-1.15641,-1.31915,-1.3463,-2.31792,-1.21472,-1.5813,-3.48158,0.12196,-2.92554,-1.26678,0.07842,-1.93867,-4.2346,-1.28885,0.52972,-0.31675,0.02663,-0.75257,-1.54814,0.85945,0.58552,-0.99381,-1.69423,-2.85084,-0.14562,-1.3363,2.4525,0.06532,-0.69399,-2.09864,0.23649,-3.69731,-1.54885,-1.44774,-1.41937,-4.17767,-2.2855,-1.85539,-0.11201,0.51496,-1.80968,1.89353,-1.33012,0.34181,-0.98257,-1.79332,-0.73515,-1.00786,-0.40263,-0.2612,1.0161,-0.46726,0.35238,-4.5658,-1.22387,0.90259,-1.5521,-1.9291,-6.39048,-0.05139,-0.13953,0.13051,-0.97291,0.052,-4.32526,2.40871,-4.1804,-5.47187,3.22334,-2.86516,-2.26359,0.03394,-1.79917,-3.04555,0.13964,0.9756,-2.22992,-3.52447,2.23847,-0.20054,0.64038,-5.71977,-0.21932,-1.33965,-0.26462,2.92156,-1.69441,-2.36344,0.04886,2.28331,-0.96569,0.01436,0.03404,-1.29438,-2.62242,0.13272,-6.19614,1.23569,-5.77997,-5.17207,0.82555,-4.29147,2.27297,-5.25173,-0.51927,-6.25202,-0.4778,-1.44667,-0.07372,-3.07923,-3.00044,-0.35984,2.05851,3.20107,0.16726,-6.15752,-4.91364,1.3403,-4.90184,0.35662,-5.9171,-6.87105,-5.12008,1.64545,-1.49102,0.12464,-3.51109,-0.17734,0.23803,0.54076,-7.9417,0.45512,1.07012,-0.26182,1.13141,-0.08867,-0.09698,0.30368,-0.01322,2.14968,3.15369,-1.92898,0.04318,-3.94513,1.25826,0.89683,-0.02011,-7.603,0.61519,0.1503,-0.8658,-1.93683,0.03342,-0.15,-4.01234,-0.09018,0.59391,0.20881,-0.28054,-3.22886,0.46862,0.08865,0.44409,-4.12422,-1.15434,0.27188,-3.56472,-3.40568,-2.90188,-4.38781,-0.23709,-1.34485,-2.73149,0.75762,-0.13508,-10.90236,-0.72201,-6.52609,-2.37202,-0.485,-1.46586,-0.98912,-1.29833,-1.0184,-0.6587,-4.74602,-0.22226,0.03764,-0.21081,-0.1211,-0.24972,-0.12233,-0.40082,0.1095,-0.08643,-0.55062,-0.12863,-0.10717,-0.02342,-0.1469,-0.11229,-0.07428,-0.05893,0.00145,-0.58014,-0.26193,-0.22756,-0.12822,-0.05911,-0.13719,-0.06508,-0.13505,-0.14566,0.05047,-0.29538,-0.18233,-0.15595,-0.08586,-0.13179,-0.14827,-0.28619,-0.48642,-0.08275,-0.1361,-0.03852,-0.18519,-0.06727,-0.26695,-0.00573,-0.4335,-0.07824,-0.22951,-0.1375,-0.12642,-0.09117,-0.14319,-0.06731,-0.21127,-0.15405,-0.07245,-0.06032,-0.14472,-0.11248,-0.15922,-0.16507,-0.16905,-0.51077,-0.0721,0.01929,-0.1735,0.87018,0.64586,-0.11265,0.19918,0.16298,0.01112,0.77254,-0.11872,1.02604,-0.53319,-1.80532,0.1379,-0.01726,-0.05417,-0.85681,-0.97347,-0.09139,-0.40154,2.04554,-3.87778,-0.51673,0.74569,0.36746,-7.63088,0.59781,-2.28512,0.06441,0.6088,0.25192,0.04743,0.0364,-0.18388,2.52903,-0.04715,0.44305,-1.00637,-0.97366,-1.94973,1.36966,-0.48765,-0.72386,-4.64403,-0.68642,-0.19092,-0.60633,0.78642,0.98734,0.74255,-1.56985,-0.55044,-0.07394,-0.33016,-7.56671,-0.60044,-0.95758,0.40538,-12.13742,-0.17439,-3.64903,0.25876,-0.74325,-0.95784,-0.42758,0.00139,0.56076,0.05221,1.5762,-0.44872,-3.09468,-0.0363,-4.88806,-0.79783,0.49144,-5.61411,-7.20114,-12.63106,-7.22412,0.08856,0.5709,-4.44896,-0.04894,-3.01551,-0.05549,-8.4825,1.37917,1.97875,0.46038,-0.45126,-1.23523,-0.093,0.43625,-1.94782,2.14338,-2.26725,0.14965,-2.06399,0.34733,-0.29031,0.30209,-4.84679,1.87378,0.54643,1.19124,1.47428,-0.95917,1.60249,0.89026,-8.50536,-8.40809,-0.0044,0.32012,-4.54146,1.808,0.1979,-0.74785,-3.41129,-4.97803,-0.91578,-0.00743,-8.02735,0.38755,-6.24258,-5.27049,-0.67197,0.37527,-6.21255,0.44124,-0.84531,-0.29092,-0.2302,-1.59541,0.00944,0.48431,0.04851,0.72637,-6.58844,0.10242,-3.45454,-3.08179,-4.33909,0.29932,-0.07917,2.14547,-2.70181,0.14961,0.40683,-4.5951,-7.47431,-2.17162,1.71896,-0.50222,-0.41809,0.399,0.96333,0.57294,-4.61223,0.5008,0.19686,0.15577,1.05974,-0.55611,-0.25906,-2.63641,0.22328,-3.08971,-1.8402,0.58987,-2.0676,-5.66566,1.17803,-5.06906,-8.1195,-7.96508,0.03689,0.0713,1.56077,0.72559,0.35855,-0.36073,-3.59114,-0.56378,-0.31885,0.35212,-6.32821,-0.42634,-0.06255,0.7741,-5.59699,-1.28326,0.54049,-0.30107,-0.30269,0.37759,-1.83412,-0.56668,-2.80939,2.14484,0.10758,-0.70126,1.1566,0.73739,-0.3119,0.69123,0.32425,-1.41392,0.13789,-0.0541,-2.5345,0.11463,-0.105,4.32038,-2.42166,-7.30389,-0.11418,-0.99173,-0.46384,-3.54512,0.33935,0.32385,1.09145,0.41569,0.16215,-0.02534,-0.30661,0.66426,-0.20869,1.77525,0.0098,1.89424,0.38974,-5.44973,-2.77812,-0.18225,0.17303,-0.1508,-0.02071,1.48057,1.39265,-1.26617,1.20164,0.35129,-3.60125,-0.71153,0.09185,1.18053,0.58125,1.24475,-0.39989,-0.15786,-1.63683,-2.51353,0.89887,-0.54676,-1.53839,-0.06737,-0.4009,-5.8692,-2.74566,-0.41043,-13.02982,0.15327,-0.06088,-0.72508,1.21451,0.24633,0.28657,1.06803,0.18248,-13.44109,0.17153,0.65509,-0.30371,-0.1287,0.25515,0.8003,-9.26191,-3.1887,3.02281,0.09948,-0.30898,-1.33794,-0.3594,-0.22906,-1.15641,0.5013,1.32164,0.02618,-1.91788,-5.57567,-0.25073,-0.45953,-0.55728,0.56629,1.4038,0.86779,-0.17764,0.54521,1.56389,-11.52874,0.07431,0.92003,0.27989,-0.82418,-2.07521,0.40196,-1.34635,-2.72071,0.9092,0.2101,-0.43854,-0.05791,-0.57173,0.12056,-0.72709,0.74492,-3.97788,0.56841,0.73461,0.04738,-0.10634,0.38867,0.53326,-4.56624,-1.08074,-2.11971,0.20366,-1.02397,0.13205,-2.73269,-0.25357,1.15746,-2.39905,-0.8255,0.03271,0.12175,0.07149,0.20987,-0.13764,-0.93643,-4.23586,1.67367,-4.19264,-0.15609,-7.78553,-0.22376,-8.78867,-0.34989,-6.69091,0.94893,-0.19364,0.0647,0.30354,0.33376,-0.02136,-1.36051,-2.21834,2.84271,-0.00381,-0.52669,0.52389,-3.01041,0.50798,-0.6913,-2.98207,-0.48607,-2.04026,-4.61687,1.52294,2.06537,-0.64357,-2.25942,-0.2907,0.71579,0.36481,-5.49771,0.49674,-0.75419,0.00524,-0.02777,-0.14317,0.04304,0.45544,1.96282,-0.11029,0.09115,-1.17282,0.67309,-2.17074,-0.27615,-0.08802,-1.38103,-1.46007,-0.48839,-1.17568,-0.01869,-1.07774,-1.79556,-0.17374,-0.76506,-2.50533,0.00967,-0.42402,-2.38385,0.22496,1.60874,-1.41466,-1.03813,-1.10229,-2.76872,1.06345,-0.19292,-3.73987,-1.53204,-1.23153,-0.12192,-1.0724,1.54211,-0.1179,-0.81317,-0.58142,0.01811,-0.2435,-1.34457,-0.2851,-0.81124,-4.64776,-0.59958,0.82618,-1.39911,-4.23891,-0.73943,0.49235,-1.14048,-0.82653,-1.89927,-0.61368,-2.5134,0.13044,-0.15531,0.51069,1.06068,-0.23393,-0.07157,-2.42241,-1.17731,-2.66091,-1.9016,-2.34839,0.9359,-1.33199,-1.1879,-12.01485,1.74223,-0.00416,-3.70168,-2.27345,-2.7766,0.44035,0.38555,-1.75623,-4.51484,-0.1138,-1.23316,0.02535,0.0887,-0.53548,-0.40499,-4.53761,2.45821,0.96797,-5.98389,-1.16245,0.7002,-1.14373,-0.53497,0.97968,1.45181,1.57691,-0.01377,0.53144,-6.48329,-0.04957,1.23892,-0.84097,-4.00688,-2.85266,-2.58494,-2.06119,0.23715,0.83124,-0.67407,-0.85515,0.87844,1.67414,-8.274,1.06731,1.40277,-5.11618,0.00376,-8.51898,-4.52611,-0.38239,-0.51188,1.37659,-12.74469,0.03316,0.86989,0.1692,0.08893,-5.52621,-0.19387,0.10496,-0.05411,-0.35276,-5.44564,-0.06606,0.4659,0.12148,0.61982,0.2288,0.58912,-7.59273,-1.03154,0.68075,-1.35121,0.02925,0.11865,-1.3034,0.08443,0.45201,1.37496,1.34287,-4.31545,2.06769,-0.11581,0.1428,-2.04231,-0.33315,0.53695,-0.57425,0.45095,-0.02817,0.09592,-2.60668,-1.0387,0.05478,0.40955,-0.60108,-4.29784,-1.6323,0.44489,0.83155,0.31112,-0.51784,0.50199,0.22628,-0.17984,0.23595,-0.3526,-0.34436,1.16447,-0.60399,-1.28463,0.19756,0.58351,0.01981,0.66845,-4.04384,-0.06997,-3.42409,-1.11441,-0.01949,-0.05255,-2.71675,-1.28039,0.16797,-2.07205,0.30544,-9.65704,-0.34753,2.80036,-0.15841,-1.15863,-1.06061,1.31248,-4.27363,-4.94299,-4.03307,-2.59631,0.12603,-2.59935,-2.38822,0.16677,-8.64088,-3.89543,-4.31087,-0.65088,2.274,-2.34769,1.17935,-2.21361,-4.43274,-0.14798,-0.57067,1.19238,0.69768,-0.16065,-3.0956,0.6976,-0.02252,-0.91905,-1.16717,-1.34867,0.23263,-1.09865,-1.30622,-2.58758,-4.40077,0.70777,-1.03653,-0.95547,0.69426,-3.97779,-0.72694,0.07447,-1.03071,-0.53347,-3.14262,-3.3119,-3.55615,-0.3724,-0.43308,-1.68679,-1.89498,-1.84776,-3.33635,-10.96633,-2.44094,-5.11063,0.84937,-0.81109,-0.9283,3.35919,-2.8508,-3.23289,0.06599,-0.07103,0.32285,-0.39275,-0.04531,2.66246,0.95205,-0.4446,0.04019,-0.07664,-0.03567,0.00894,-0.42723,0.02789,-0.64397,-1.85317,-2.05297,0.46913,0.4043,-1.94188,-1.27638,-0.50235,1.06655,-5.17632,-0.18817,0.08843,-6.98329,-10.32155,0.13311,1.44804,-0.32721,-3.35162,0.69433,-0.09273,-2.96925,-2.93034,-1.26239,-1.79613,-3.58819,0.27178,-1.33657,0.33138,0.61765,2.67927,-1.77634,-6.72151,1.76624,-2.38382,0.46936,1.01662,-22.32734,-1.41532,-0.31837,-4.48996,1.10157,-0.36241,0.26551,1.63509,-5.65789,-1.36304,-0.18316,0.28719,-1.27078,3.03757,-0.09198,-0.90247,-0.23532,1.32672,0.60526,1.34903,-2.1008,-0.70428,-0.01236,2.37704,1.82666,-0.07677,-1.68588,-5.91942,-1.46987,-0.59,-1.31227,0.36695,-0.116,-2.16952,-1.25958,0.02739,-2.51681,-2.09497,1.48994,-0.18719,-0.7551,-2.51584,0.07126,-0.31861,-0.70447,-0.87731,1.45528,0.38775,-2.29409,-0.04871,-3.76211,-1.84752,-3.28637,-0.54158,-0.46267,1.29335,-1.45062,2.88656,-2.14972,-4.79676,-0.48663,-1.11885,-2.43909,-2.4372,-2.13574,-1.80756,0.05306,-1.12705,-2.28689,-1.07695,-1.24792,3.13442,-1.51016,0.05827,0.72709,0.60205,-9.57595,2.77597,0.03718,1.21778,2.39044,-0.76508,-1.95243,2.21619,-0.09978,1.40944,-0.15583,0.93501,-1.365,0.01539,-0.77163,-2.10488,-1.65499,-0.01909,1.96382,-1.78548,-0.87352,-0.00259,0.74804,-0.54489,-0.83991,0.13611,-1.07445,-0.12658,1.49269,1.86313,0.24623,0.56851,0.3627,0.43661,0.48188,-0.57685,0.63023,-0.32465,0.71882,-1.48608,0.09343,-2.04763,1.7717,0.29255,0.98885,-7.79554,-2.00582,0.83322,-5.22882,-9.15227,-2.48214,-0.22981,-0.22592,0.75747,0.31517,0.03584,-1.58875,-0.22474,-0.42988,-0.15829,-0.77966,1.19343,0.88142,-1.23019,0.51778,-1.37344,-0.12098,0.72582,1.9578,2.62971,0.42524,1.34267,-1.99917,-0.85173,-0.25945,-0.02726,-5.03186,0.15629,-3.89573,-1.6317,2.62148,-0.33879,-0.38443,1.14377,-8.46012,1.04892,-1.35437,0.12347,-0.35818,1.27901,-0.97001,-0.08608,-0.70537,-0.32951,0.02707,0.74272,-2.17961,0.26333,-1.26326,0.42556,-1.30319,0.45552,-1.7902,0.81901,-0.67956,0.8459,0.26447,1.90827,1.30243,0.54013,1.00217,-1.17219,1.3564,-4.06045,0.27003,0.99428,0.36205,-1.71794,-0.10228,1.31915,-2.17885,-9.215,-1.38252,-2.82787,-1.58105,1.43074,0.8681,-0.29897,-1.48265,-5.951,-0.04784,-1.30197,-3.76167,1.96021,-1.27724,0.81607,0.20489,-0.62319,-0.12647,-4.12732,0.63714,-0.02099,-0.15835,-6.64771,-3.42489,0.81231,0.90261,0.18481,-0.46042,-0.86742,0.48875,-0.1685,0.11381,0.35565,0.17387,-0.09316,0.40406,-0.19371,-0.22285,1.54639,-1.46531,1.2296,0.35065,-0.44793,-1.22402,-6.10421,-1.15957,1.4003,1.23099,0.79441,-3.9945,-1.40253,-0.32913,2.88335,0.82638,-2.91302,-0.19664,-2.60358,-1.82429,0.78963,-3.46867,0.29914,-1.80253,-1.14634,0.24774,0.23827,0.66711,-4.0468,0.11284,-0.40521,-5.68602,-0.61844,-0.84831,-0.41809,-0.02457,0.11615,-1.74109,-0.70215,-0.21658,-1.32347,-0.07223,-0.116,0.09584,-0.07396,-0.14248,0.05262,-3.12731,-1.43199,-0.65033,-1.26983,1.30382,-3.60117,0.0295,-1.11154,0.47192,-0.27057,-0.547,-1.9985,0.6338,-0.20323,1.60037,2.30189,0.16503,-2.30242,0.63081,0.59968,0.21511,0.03977,1.53027,-6.90538,-0.38139,-1.13022,-0.37326,0.43836,-1.21085,0.80533,-2.23008,-0.07756,-5.28935,0.3087,0.50858,0.43186,-0.74193,-0.01801,1.05002,0.31977,0.4965,0.04441,0.13923,0.38331,0.5946,-0.34338,0.41027,0.14392,-0.61109,-1.65903,-0.08932,1.14972,-0.08981,-0.6128,0.97345,-0.35009,0.56943,0.01548,0.35053,0.63356,0.01585,0.05111,-0.12133,0.05102,-1.88097,1.70484,-2.12916,-0.26001,0.85463,-3.6978,-0.00576,-0.4131,-1.38298,0.18938,0.65399,-0.08944,0.11277,0.03101,-0.33272,2.76451,0.08645,0.0525,-1.84637,1.31832,-0.98736,0.57065,-0.32758,0.13609,-0.30841,0.72543,-0.77337,-0.08717,0.56944,0.04173,-3.26982,-2.88747,0.05249,0.37643,-0.20533,-0.27741,1.17385,-0.87918,-0.42339,0.07665,-1.17941,0.22706,-5.22146,-0.21035,-0.75353,0.05197,0.19245,0.56724,-6.32011,-0.14596,-1.84416,-2.25628,-0.11404,-0.5316,0.93444,1.95182,-0.24338,1.74866,0.21538,0.0851,-0.10322,0.25357,-0.60874,-0.02688,0.44788,0.6476,-1.56514,-0.90407,-1.77204,0.47777,0.22895,-3.83127,-11.7713,0.11016,-3.41372,-1.69303,-0.39313,-0.1914,-1.14774,-3.19536,-0.05944,-6.10625,-0.81724,0.89599,0.6508,-0.23676,-3.73475,0.2254,0.47398,-9.75776,-0.72417,-0.21896,-1.22353,-1.8507,1.81723,3.56647,-11.12705,-5.20738,0.88314,-0.20945,-0.78837,-1.06587,-3.15498,-11.11566,0.19332,-0.64779,1.15681,-0.10904,0.35141,1.15268,-1.48891,1.36093,-1.6495,-0.45109,0.82671,-0.02714,0.02752,-1.13687,-4.31283,-2.14257,0.57533,-0.78318,-5.39216,0.22745,0.04596,-6.62373,-0.28557,0.11546,-7.56134,-2.248,-3.7558,-2.58259,1.78336,-7.64736,-0.80759,-1.13579,-9.04111,-0.55117,-1.00254,0.53707,-1.03044,-0.13187,2.63123,0.70833,-0.0889,-1.86436,1.09123,-5.46743,-2.6116,-1.06918,-0.49135,-5.01755,0.14525,-2.1578,-1.42566,1.27782,0.72329,-3.20236,2.04654,-0.6625,-1.05832,-7.58102,-0.03212,-10.96116,-0.62063,0.11119,-3.18112,-10.63602,1.31695,-7.04416,2.08454,-0.08597,0.87566,2.26379,-10.34878,-0.92766,-1.11464,-4.44671,-1.93053,-3.85959,-0.05101,1.37577,-3.10508,-0.66572,0.86474,-1.80326,0.59715,0.24329,-0.14251,-1.24926,-0.50753,-0.10842,-3.34364,-1.24288,-2.93501,3.26005,-7.78894,1.55534,-0.85079,0.25347,-5.34524,-0.75382,-1.71722,0.68823,1.15038,0.1966,2.57332,-4.90213,-0.17003,2.16315,-2.86502,-3.62627,-0.4939,1.92291,2.73347,1.53575,-5.76634,0.73815,0.16566,-1.33267,-0.43259,-0.29044,1.98545,-1.27515,0.23536,-1.23854,-5.3434,-2.03871,-0.87485,-2.95735,0.77945,-2.43485,-0.60666,-0.19807,-0.56862,-8.55213,-0.31783,5.16393,1.33986,1.01171,-1.74746,0.53616,-2.85106,0.27483,0.2141,0.12734,-0.30256,-2.27829,-0.15938,0.36375,0.99993,-0.78639,-0.02052,-4.71375,-7.13993,0.06892,-0.94847,-4.85754,-6.30615,-0.50954,2.30782,-1.59846,0.30377,-3.92689,-0.02763,0.02614,-0.30618,1.03671,0.86187,0.09719,-1.74082,1.58859,-0.37203,0.44621,-0.43316,1.26675,0.04885,-0.2042,0.87616,-3.83851,-0.13722,1.70951,-1.49988,0.14586,-3.24633,-4.04444,0.95042,-2.23098,-3.97721,-1.03443,0.98602,1.19319,0.18919,0.14606,0.72067,0.31108,-1.45348,1.6548,-1.0321,-0.96152,0.24889,0.8659,0.76978,0.18873,-2.55912,0.06638,-0.85707,2.16021,-0.09053,-0.0648,0.65913,0.38721,-0.65373,0.50632,0.5383,-4.42078,-0.08702,0.31747,-0.89551,0.11496,-0.82425,-0.42848,-1.52176,1.7594,-0.45902,0.4129,0.64553,1.07744,-0.42012,0.6104,0.72499,0.74795,1.15628,0.00225,0.59716,-3.3182,0.06306,0.50814,-0.75942,0.18242,1.02577,0.38223,2.46707,-0.89284,-0.88676,-4.41183,0.25841,0.90937,-3.24462,-0.30786,1.65341,-0.52098,0.53654,-1.80183,-0.10326,0.44704,0.34764,0.59003,0.13822,-1.49181,0.57563,0.58861,-0.8468,0.15867,0.02499,0.02936,-2.59467,-1.02158,-0.96776,-0.61972,-2.98077,2.94116,0.17139,-5.00312,-6.70844,0.37499,-0.43859,-3.48191,-2.44004,0.04926,-0.01997,0.67919,-6.39193,0.04603,-0.23304,1.59425,-2.01679,-3.67011,-0.5422,-0.77814,1.19198,-4.93071,1.46137,-0.08872,-3.67387,-0.25122,-1.90877,-0.14038,-0.44464,-0.07201,0.86949,-2.0951,-0.41683,-0.1814,-0.31213,-4.1383,-2.28243,-0.30612,-0.9491,-4.08821,-0.25447,0.53023,1.26502,-3.05459,-0.04703,-6.46865,-4.39657,-1.65113,0.29246,0.23998,-0.70475,-0.16551,-0.89056,-0.74491,-2.00154,-1.03513,0.51831,-0.74303,-1.77104,-1.81919,-3.99655,-0.22964,-0.31449,0.06263,-0.09668,0.01789,-0.14807,-0.33488,-0.12182,-0.15612,-0.27714,-0.4317,-0.14011,-0.43099,0.24588,-0.14381,-0.33342,-0.07405,-0.17714,0.05267,-0.0405,0.03743,-0.41562,-0.21723,-0.1814,-0.09517,-0.04911,-0.17787,-0.36373,-0.15674,-0.05193,-0.22171,-0.11571,-0.29935,-0.03874,-0.06502,-0.54405,-0.22793,-0.35595,0.02259,-0.07406,-0.00647,-0.48306,-0.16145,0.02926,-0.36397,-0.13621,-0.21108,-0.07354,-0.03076,-0.38393,-0.33401,-0.57335,-0.43045,-0.02665,-0.62967,-0.49104,-0.28077,-0.09496,0.05407,-0.2311,-0.45046,-0.14918,-0.50524,-0.48868,-0.19177,0.66633,-0.14725,-1.29387,2.06354,0.10744,-0.79614,2.08673,0.59803,-3.50712,0.47113,-2.95777,2.70146,-0.0619,-3.52148,-1.38557,-0.04015,-0.67269,-5.16075,1.54534,-1.96786,-1.31981,-0.24651,0.40683,-3.39696,0.22551,-0.37049,0.3322,-1.41195,-1.16987,-0.15233,-1.15603,0.17307,0.03304,1.10435,-0.11816,0.63443,-2.3823,-3.84494,0.4449,-0.60779,1.69424,-2.33349,-0.61697,-3.44872,0.70495,-0.18556,0.54272,2.81612,0.64378,-0.81799,0.01475,-2.40289,-9.89844,0.06273,-0.3587,1.08601,0.08473,-2.4023,0.42208,1.29806,-0.93188,-0.69531,-1.82788,-0.75227,-0.19107,-0.25963,-0.93481,-0.61848,0.10516,-0.38623,0.51302,-0.11573,-0.28196,-1.43774,-1.02685,-0.68691,-0.04481,-0.68376,0.3117,-0.03952,-1.17732,-0.6591,-1.04788,-0.77685,0.01678,-0.67163,-2.11293,-1.80444,-0.86784,-0.01548,-0.86784,-2.44219,-0.12107,-0.06105,-0.05429,-0.58285,-0.11292,0.07566,-2.28391,-0.84114,-0.69907,-1.07708,-0.49275,0.68303,-2.0855,-1.1833,-1.82782,-0.35304,-1.75991,0.23719,-0.55409,0.7336,0.36276,-1.67048,-0.63629,-0.87748,-0.96663,-0.9227,-0.24664,-0.45806,-0.22601,-0.24768,-0.86378,0.48331,-0.24871,-0.59156,-1.23428,0.13358,1.21916,0.61861,0.11878,-0.2739,-0.03674,-0.96754,1.29076,1.40787,0.35705,-0.05578,-0.59222,0.37496,0.05713,-0.06932,-0.48608,0.13787,0.14182,-0.24453,-3.77676,-3.98806,-2.23975,-0.61165,0.28001,0.08661,-0.28308,-0.4559,0.63485,0.00635,-2.61294,0.21103,-7.50617,-2.3472,-0.18613,0.45252,-0.98908,1.05705,-0.28897,-1.02499,-3.99526,0.58977,-5.09577,-0.05353,-0.38341,0.15284,0.66672,0.43609,-0.26578,-0.27045,-0.1593,0.28418,0.03648,0.12967,-1.54365,-0.55434,0.14606,0.65701,-7.86541,0.13952,-4.4037,-6.50793,0.553,-1.21086,-0.44847],"b2":[0.88492,-0.69393,-2.95505,-6.85548,-4.55673,-3.01913,-12.08377,-2.89333,-6.79937,0.38797,1.71157,0.40051,-3.93268,-10.33381,-0.3478,-8.32048,-1.35311,-5.02201,-2.03703,-4.56886,-0.65399,1.34201,-3.85502,-1.38944,-6.2853,-2.68263,-1.70757,-4.58878,-6.4201,1.25297,-0.22447,-6.58604,-7.2956,-4.1001,-3.19464,-2.63025,-5.3041,0.01266,0.94385,-5.47334,-8.663,-1.88892,-1.68809,-1.93881,-0.62978,-10.98845,-3.23568,-0.711],"W3":[-0.42949,-0.08187,-0.24923,0.34838,0.18531,-0.03525,-1.04015,-0.07912,0.31678,-0.65298,0.06921,-0.1934,0.02058,0.76776,0.23825,-1.38238,-0.43938,-1.51086,-0.26082,0.25629,-0.30723,-0.06689,-0.47361,-0.17198,0.10058,0.13169,0.2077,-0.7198,-0.25531,0.09388,-0.77542,0.03543,-0.12117,-0.28961,-0.46039,0.30118,-0.8098,-0.32316,0.16805,-0.48612,-0.95847,-0.36979,0.16774,-0.50822,-0.20036,-0.1093,-0.98342,-0.07378,-0.4377,0.01389,-0.34526,0.06433,0.24404,-0.34413,-0.74838,-0.09257,-0.76784,0.19302,-0.19909,0.10484,0.36866,-0.88054,0.19513,-1.27466,0.30388,-2.32052,-0.35833,-0.49376,-0.50891,0.1157,0.22722,0.11545,0.20691,-0.28456,-0.2034,-1.10897,-0.34956,0.16652,-0.94917,-0.77158,-0.97738,-0.37649,-0.26692,-0.43796,0.32779,0.21175,0.08573,0.2162,-1.05868,0.16708,0.13879,-0.14298,0.18545,-0.27078,-1.45829,-0.25861,0.27568,0.24339,-0.43102,-0.15462,-0.33105,0.03737,-0.31784,0.25856,0.32336,0.03344,0.16831,-0.14488,-0.19464,-0.98115,-0.08137,-1.28002,-0.39806,-2.37136,0.24943,-0.37799,0.20918,0.05392,-0.2829,-0.44437,-0.56302,0.05591,0.0069,-0.98621,0.18616,-0.3569,-0.83312,-0.61153,-0.3898,0.14312,0.1618,0.29962,-1.26031,0.25584,-0.27934,-0.46394,-0.36699,0.03846,0.1522,0.06509,-0.10273,-0.70185,-1.84808,-0.00611,0.32623,0.06031,0.28485,-0.17441,-0.31128,0.18227,-0.90832,-0.01521,-0.71236,-0.15642,-0.0678,0.21958,-0.21081,-0.15136,-0.25798,-0.40276,-0.18534,-3.08485,-0.18355,-0.20367,-0.25053,-0.39372,0.17515,0.00714,0.10096,0.04897,0.18662,-1.92155,-0.41881,-0.33109,-0.44999,-0.28887,-1.47869,0.09947,0.11475,0.18596,0.2657,0.14399,-0.34809,-0.3753,-0.95272,0.18767,-0.57294,-0.38375,0.15579,0.53462,-1.198,0.23089],"b3":[0.00801,-0.14452,0.08247,0.05043],"trainedAt":"2026-07-01T00:25:19.906Z","note":"step-selection MLP 2-capas (Adam, gramatica + tus charts, JS puro)"}