{"inDim":21,"hidden":28,"out":5,"W1":[-1.24679,0.49614,-0.58473,-0.54315,1.19989,0.37844,-0.34448,-2.9139,-0.62355,-0.36502,-2.6492,0.93699,-2.09705,0.22452,1.0887,1.11426,-0.62119,-0.00463,-0.61768,-0.89531,-0.55733,-1.96735,1.37063,-2.66899,-1.41878,1.84152,0.9689,-2.24291,-2.01725,-0.04839,-0.03029,0.76628,0.78096,-1.51909,3.09995,-1.93319,-1.77025,0.61623,0.86127,1.41645,0.73505,0.76911,-8.48987,-2.71896,-3.29583,1.47937,2.55233,-0.15639,0.80268,-3.33267,-0.33402,-0.60569,3.24417,-0.30973,-0.9466,2.70232,-1.74058,-1.46876,-0.14188,-0.16251,0.6337,-0.1789,-0.12981,0.0025,-0.25822,-1.69995,-1.63776,-1.68535,-2.15037,9.40219,2.0942,-0.35482,-0.11442,0.03384,-1.13104,-0.9888,-1.29934,-1.05057,-1.01433,-0.00593,-0.09257,1.1418,-0.09927,-0.09879,0.04115,-2.94235,2.00332,2.08483,-2.68557,-2.99971,7.99618,-3.5184,0.07177,0.16562,-0.08702,-0.76925,-0.72993,0.5001,-0.56758,-0.54466,-0.0551,-0.18053,0.17911,-0.1976,-0.08135,7.32871,-2.56592,-3.02096,-2.77144,2.87162,0.05989,0.60338,-5.44215,-0.3714,0.46025,1.47975,-1.35745,-1.14872,0.10886,-0.95005,-1.88281,-0.94071,-0.9289,1.30103,-0.22667,-0.1097,0.76499,-1.39864,-1.01001,-1.28955,-0.81219,-0.39984,-2.11437,7.24969,0.03535,-0.75008,-1.11643,0.17976,0.54476,-1.18083,-2.28921,-1.12856,0.34963,-0.12242,-0.3991,-0.67793,-0.9911,0.51977,-1.25923,-0.97319,-1.2274,-1.22656,-0.0415,-2.24223,8.26455,-0.3173,-0.57376,0.32533,0.58635,-1.1513,-0.2996,-2.20206,-0.75891,-0.78462,0.03326,-0.82328,-0.48455,-1.2338,-0.0087,-0.97462,2.01108,1.40096,-1.49817,-1.00914,-10.67974,-2.34477,0.13539,0.03671,1.20455,0.25674,0.16821,1.03498,0.54185,0.29088,0.16773,0.37178,0.50361,0.33165,0.23864,-0.54615,2.46749,-2.25893,2.09216,-2.10114,-2.28853,-1.51241,-4.37372,-0.01778,0.16564,0.17579,1.27835,0.8156,-3.05442,0.79525,0.57523,-0.34941,-0.3738,1.31917,-0.49877,0.07792,-1.28219,-1.17868,-0.42457,-1.14338,0.312,0.88195,-3.00449,4.97012,-1.50743,-0.34698,-0.84377,1.08409,1.35908,-3.11964,-0.89093,-0.84923,0.39267,0.68822,-0.75419,-0.50672,-1.23576,0.27505,3.06605,-1.41891,-0.8352,-1.34481,0.51411,-1.21226,-4.11076,0.03799,0.12464,0.17666,0.19647,0.21148,-0.5566,-0.15011,-0.14042,-0.00537,-0.11602,1.1366,-0.35466,-0.23331,0.14269,-1.26099,-0.77116,-1.13159,-0.74089,-0.08678,-1.97483,7.23612,-0.09217,-1.14637,-0.69313,-1.23988,-1.94751,-1.48108,0.36335,-0.72741,-0.82337,-0.73807,0.16063,-0.60087,0.89375,-2.14028,-0.89019,-2.20451,-0.93318,4.05972,-0.03846,0.24997,-5.91551,-0.31889,0.79606,0.48366,-0.65688,-0.42342,-0.50005,0.19826,0.57806,-0.84783,-0.7118,2.40417,-0.15601,-0.30832,-0.1282,-0.22782,-0.52924,-0.39712,-0.23558,-0.86011,-3.9615,4.15447,-4.07552,-2.21668,0.6268,1.51323,-1.19308,-2.28945,0.54333,0.60283,1.76799,1.71703,-2.34468,-1.95186,-2.41759,-0.09237,-0.2046,-0.19282,-0.28906,-0.09862,-0.23835,-0.28137,-0.04965,-0.28982,-0.28301,0.08337,0.04363,0.18505,0.13531,0.04107,0.17812,-0.02916,0.00086,-0.21115,-0.26969,0.16749,-0.71424,-0.66654,-0.98799,-1.25281,-0.77305,-0.04874,-2.15723,6.96152,-0.20859,-0.22759,-1.30896,-1.65003,0.05048,0.08036,-1.77973,-0.06305,-2.01144,0.35994,0.70844,-1.51978,-0.51528,0.06849,-0.54788,3.12602,-0.06188,-0.84785,-0.90687,-10.37238,-1.98976,-0.11743,-0.06617,-1.00473,0.18506,0.26653,0.82191,0.06808,0.2256,0.36212,0.15668,0.92558,0.24725,0.23655,-8.32775,-1.17657,-0.71877,-0.26017,1.4943,0.3348,-0.89278,-0.41475,-0.32642,-0.05289,-0.70624,1.93822,-1.18995,-0.80969,-0.46457,-0.04924,-0.86883,0.0179,0.17657,0.00573,0.15356,4.07174,-3.32479,-2.74803,1.77673,2.83894,-0.38885,1.05077,-5.03474,-0.03254,0.79518,-3.59156,-1.12962,-1.55011,0.7146,-0.20369,-0.08417,-0.87046,-0.73116,1.80731,-0.41804,-0.6629,4.99301,-2.07003,-1.20332,-1.34687,1.31582,0.75323,-2.04745,-1.3922,-0.21508,-0.29514,-0.64556,-1.65267,1.35112,-2.10886,-2.30999,1.32125,-0.39826,-0.29515,0.61283,0.21089,0.2321,0.29639,-0.41995,-0.28758,0.11702,-0.4073,0.33091,0.10574,2.93029,-3.74688,-0.29988,-2.87652,0.67412,0.53914,-2.6103,0.28362,0.42708,-2.60281,-0.70459,-2.64236,0.65889,0.87836,-6.97938,-2.19203,-1.47064,-0.29228,4.03049,-0.40293,1.40167,-4.77296,-0.39608,0.77088,-0.05953,-1.43742,-1.5405,0.91066,1.22132,1.14854,-0.51527,-0.42542,1.69994,-0.81405,-0.64855,-0.09763,-3.27779,1.75786,1.91286,-3.30032,-0.8651,2.98397,-2.74081,-0.82928,-1.22445,4.06099,-0.54252,-0.47701,0.29918,-0.91454,-0.87146,-0.21368,-0.24997,0.82725,-0.29403,-0.10598,-0.13952,-0.04728,-0.12601,-0.12355,-0.0414,0.1244,-0.21892,-0.02766,-0.06765,-0.21104,-0.00485,0.1093,0.00899,-0.16452,0.09073,-0.26654,0.16616,0.17459,-0.22728,0.13838,-0.02816,-0.58372,-0.97993,-0.65267,-1.11491,-0.42439,0.11038,-2.00769,6.1954,-0.34108,-1.34896,-0.30904,0.21814,-1.73603,-0.72346,0.09312,-1.17033,-0.44388,-0.73427,1.07976,-0.68951,-1.78965,-0.82629,-1.33543,-0.25,-1.06099,-0.28194,0.26227,-3.6458,5.58578,0.25062,-0.18844,-1.32078,-0.41917,-0.90092,-2.04815,-1.38196,1.65599,-1.15604,-1.21018,-1.24952,1.04917,0.57221,0.26329,-0.25975,-0.37044,-0.27602,-0.18248,0.74206,-1.71765,0.56313,-0.69184,-0.14856,-1.0465,-0.71375,-1.44955,1.8058,-0.72556,-0.11431,0.81649,1.05772,-0.18624,-1.49398,0.01896],"b1":[1.13163,-1.45199,-1.95347,-5.63709,-1.65469,-5.63147,-4.31297,-4.27114,1.71135,0.20654,-2.32526,-0.36063,-4.47404,-0.38869,-1.02474,-0.17779,-3.50496,1.77926,-0.42559,-1.89833,-3.13791,-0.62437,-0.05719,-2.66431,-0.2001,-3.50962,-3.36466,-0.77421],"W2":[-2.37208,-2.53358,2.94317,-2.53369,1.40003,-2.0201,2.92095,-1.83579,3.53338,0.30772,0.87369,-1.63906,-2.00512,0.16818,1.24001,-0.02852,1.47693,-3.16347,0.36863,-0.62949,-0.2872,-1.38313,0.84381,1.7504,0.1384,-0.99617,-0.00034,-3.15632,0.5471,1.88309,-0.97267,1.32525,0.88723,-0.50229,-1.34954,4.43775,3.83054,-1.30475,1.03641,1.22856,-2.51537,0.44285,1.11395,-0.08444,-1.15883,-1.58812,1.68969,-1.36738,-0.34419,-0.88119,0.72721,1.02014,-0.16238,-0.29167,-2.49126,0.65091,1.09971,1.44636,-2.03649,2.8781,-5.51809,-0.40621,3.76478,-3.38646,-3.16828,1.57907,1.07279,2.01316,3.27983,1.52555,0.19795,-0.14478,0.33252,-3.18389,-3.22029,-0.49322,-0.83265,-0.07552,-0.96299,-1.77328,0.16199,0.4446,-1.63989,0.74493,0.88637,1.23199,-1.25989,0.46052,1.24752,0.75188,-2.79203,3.66476,-1.42782,-1.62597,-1.78869,1.12484,-1.53935,-0.37308,-1.14846,0.14084,-0.00442,4.06983,0.65698,0.96576,1.10845,0.80441,-1.24041,-0.23339,0.18147,-1.55038,2.86891,1.11241,0.00388,-2.02009,1.53509,-2.32449,2.26872,1.94642,-2.45239,-2.62249,-3.15452,1.25036,-0.90674,-2.7815,2.57373,-2.26913,-1.37477,-0.0499,-0.56807,3.94971,0.57231,1.85557,0.69782,0.78036,0.16243,-1.03979,-0.1588,1.49194,1.06184,0.95572],"b2":[-0.00657,-0.05056,0.02232,0.17509,-0.14019],"trainedAt":"2026-06-30T05:12:48.817Z","note":"step-selection MLP entrenado con gramatica de patrones (JS puro)"}